1277 50
<UNK> 0.000114364004 3.4701432e-05 -0.00033702725 0.00035881548 -0.0002898551 -0.00020275191 7.607448e-05 1.8993103e-05 -7.7928395e-05 -0.0002461624 -0.00015486915 0.00021339282 -0.0001244304 9.6078045e-05 -9.142306e-05 -3.972359e-05 -5.5431923e-05 3.941052e-05 -0.00013590639 -4.6659312e-05 -0.0003539943 6.554785e-05 -0.00024872858 0.00019246849 -0.00029792974 0.00030001564 0.00033448913 5.8344827e-05 -0.00024641003 -4.515576e-06 -0.00011855285 -0.00036773775 -0.00017233839 4.2116757e-05 0.0003414548 0.00021856859 4.843639e-05 -0.0003357357 0.00032476915 -5.981815e-05 0.00030702873 -0.00023160278 4.0653398e-05 -0.00015618984 1.6094303e-06 0.00013777924 -0.00027216977 0.0001379985 -2.6762447e-05 0.0003429806
bought -0.033411343 0.033998232 -0.0346639 0.03407427 0.03312097 0.034157302 0.033737212 0.0339792 0.034418255 -0.03384763 0.033961374 0.03488476 0.034131035 0.03425201 -0.034978434 -0.03399882 -0.03470953 0.03395743 -0.034043096 0.034280714 0.033798374 -0.034525115 -0.03421898 0.034181777 -0.034509514 0.034224037 0.034586962 -0.033763375 -0.03420755 -0.034235887 -0.03456096 -0.034042336 -0.03373529 -0.033963658 -0.035174593 0.034355454 0.034157198 0.034612853 -0.034284715 0.034094952 -0.033574738 -0.033790678 0.034019604 0.034477524 -0.03455947 -0.034594007 -0.034459516 0.034426413 -0.03469619 -0.03446443
gift -0.023782216 0.023915801 -0.023869935 0.024076113 0.024313949 0.023622736 0.023915013 0.02325151 0.024021696 -0.023654677 0.023589533 0.023985703 0.02356456 0.023524538 -0.023805408 -0.023481218 -0.023384487 0.02279572 -0.023091272 0.023575645 0.0233553 -0.023338784 -0.02381962 0.023360107 -0.023963522 0.023462124 0.023979062 -0.02388521 -0.024106171 -0.02393425 -0.02396259 -0.023318188 -0.023568109 -0.023527525 -0.02367188 0.023671607 0.02321213 0.02415082 -0.024226237 0.024057418 -0.023302738 -0.023581792 0.024242517 0.023704933 -0.024043757 -0.02372666 -0.024248287 0.023529563 -0.023562806 -0.023776518
person -0.019229896 0.01945382 -0.019647732 0.019418878 0.01948018 0.018861055 0.019488223 0.019915348 0.018876335 -0.01925552 0.019545283 0.018658543 0.01954326 0.01874895 -0.019029252 -0.018960267 -0.019036174 0.01990371 -0.019319942 0.019307869 0.020143734 -0.019689642 -0.01934232 0.019192064 -0.01907097 0.01922629 0.01942706 -0.018741675 -0.01927315 -0.019008799 -0.02003456 -0.019216087 -0.01950933 -0.01967817 -0.019681495 0.01905368 0.01916724 0.018698085 -0.019606372 0.01990106 -0.019641388 -0.019452013 0.019193921 0.018854832 -0.018896593 -0.020033542 -0.019046312 0.01896739 -0.018953087 -0.019751366
got -0.042175665 0.041575123 -0.04230217 0.041732866 0.042746942 0.0426503 0.041977067 0.04208785 0.042017933 -0.04243093 0.0416397 0.04175506 0.041941885 0.04116328 -0.042245165 -0.041363854 -0.042961836 0.042917788 -0.042000324 0.042103756 0.042528752 -0.042385772 -0.04195139 0.041953918 -0.04174847 0.041635245 0.041632567 -0.042474296 -0.042341605 -0.042931255 -0.042274207 -0.0429508 -0.041810088 -0.04221119 -0.043186072 0.042538416 0.04182362 0.040802944 -0.042866785 0.041444555 -0.042820897 -0.041470956 0.043169647 0.042302154 -0.04222356 -0.042371456 -0.042932644 0.040809862 -0.042832803 -0.042776
loved -0.037817072 0.038753316 -0.039172493 0.037689205 0.039024446 0.038871605 0.038476504 0.038836397 0.038570687 -0.037779797 0.038522907 0.03883 0.03859326 0.03770205 -0.03887873 -0.037930846 -0.0383272 0.03922322 -0.038401898 0.03956874 0.038337868 -0.03929818 -0.038365945 0.03887935 -0.0388575 0.03892421 0.03858979 -0.037535958 -0.038473688 -0.038330406 -0.038090993 -0.039669704 -0.038788598 -0.038439475 -0.03827807 0.03856866 0.03913999 0.035336472 -0.039192215 0.036960214 -0.039963577 -0.03884091 0.039264236 0.038615696 -0.039326653 -0.038442362 -0.03897407 0.03867849 -0.038232863 -0.038843542
use -0.026326865 0.026722262 -0.02626361 0.026314061 0.026272453 0.025956744 0.026782265 0.027207488 0.027083734 -0.026686529 0.02645394 0.027116777 0.026759647 0.025913186 -0.025789855 -0.025896652 -0.026145834 0.026383067 -0.02690494 0.025917847 0.02658489 -0.027049594 -0.026022622 0.02568391 -0.026167132 0.026379962 0.025871223 -0.026470954 -0.026422907 -0.026825307 -0.026167724 -0.026377896 -0.02653762 -0.026440507 -0.026224202 0.025915962 0.026309382 0.027855337 -0.026778782 0.026511788 -0.02660223 -0.02653284 0.026900876 0.026108012 -0.026270453 -0.026177665 -0.02717391 0.025812225 -0.026340542 -0.025633724
soon -0.010672216 0.010490541 -0.010781887 0.010226378 0.010210598 0.010098295 0.010697724 0.010586821 0.010434591 -0.01060381 0.010717383 0.011136071 0.010886082 0.011167877 -0.010063396 -0.010577381 -0.010791849 0.01117919 -0.009716924 0.010018583 0.010035229 -0.010621902 -0.010352975 0.010022224 -0.008987784 0.00909165 0.010843534 -0.010663006 -0.010535609 -0.010598346 -0.01120111 -0.010964336 -0.010873132 -0.010659466 -0.010469038 0.010939235 0.011017143 0.010577287 -0.0100688385 0.010422653 -0.009609712 -0.0104869045 0.010629093 0.01063267 -0.010815262 -0.010716828 -0.010256313 0.010543113 -0.01077936 -0.010679436
well -0.06044889 0.06080089 -0.06075561 0.060507774 0.0613268 0.06125698 0.060857385 0.061209716 0.060980875 -0.060482115 0.06102069 0.061306465 0.061677817 0.06172272 -0.060736436 -0.061223157 -0.061434325 0.060878478 -0.06130157 0.060857695 0.0601937 -0.06161725 -0.061480563 0.06026068 -0.060981393 0.061438557 0.06171475 -0.061807666 -0.061717622 -0.061235987 -0.06111681 -0.06107343 -0.061617628 -0.061793588 -0.06083077 0.061358176 0.061450023 0.061593354 -0.06061938 0.061470024 -0.061598737 -0.060545485 0.060834017 0.061124567 -0.061238095 -0.06159396 -0.0613499 0.0619091 -0.061537527 -0.060135353
written -0.0464749 0.046735335 -0.04565713 0.04744986 0.04771993 0.047304768 0.046347644 0.04709552 0.047588084 -0.046290852 0.04662205 0.04722423 0.04732374 0.047740825 -0.046966683 -0.047676317 -0.047163576 0.047871657 -0.046751335 0.047670472 0.04869577 -0.047761623 -0.04739515 0.047078867 -0.04729306 0.04678442 0.045973536 -0.047837704 -0.047453176 -0.04717919 -0.046994813 -0.04805763 -0.047836173 -0.047488876 -0.0480633 0.047321726 0.04789823 0.047363948 -0.047545236 0.047615197 -0.04795947 -0.047439072 0.0478486 0.046745993 -0.04816778 -0.047729917 -0.047843765 0.04750549 -0.047444943 -0.04680223
book -0.074249804 0.07424116 -0.07467906 0.074387856 0.07478673 0.0742179 0.074304454 0.07413629 0.07389773 -0.073572636 0.07443828 0.07416065 0.07541718 0.07405753 -0.07464747 -0.07552923 -0.07516094 0.07383686 -0.07354768 0.074526325 0.07267223 -0.07458698 -0.07508178 0.07391588 -0.07366405 0.07442165 0.07411008 -0.07430489 -0.07473154 -0.07544047 -0.075092494 -0.07505952 -0.07480292 -0.074202396 -0.07496294 0.07502797 0.074511535 0.074611165 -0.074177474 0.07392047 -0.07463354 -0.07405147 0.07450907 0.07387062 -0.07438478 -0.07463826 -0.074653335 0.07458356 -0.07503933 -0.0747736
period -0.018005883 0.017961323 -0.018455815 0.01840956 0.018366471 0.018741515 0.01774582 0.018191952 0.018093657 -0.018117476 0.018530475 0.01805734 0.01821367 0.017992575 -0.017935341 -0.0175485 -0.017653974 0.018074868 -0.017600827 0.018344637 0.018008856 -0.01844075 -0.018266624 0.018372227 -0.018634383 0.017973619 0.017404836 -0.018764153 -0.018718077 -0.017774679 -0.018454213 -0.018474136 -0.018610785 -0.017674878 -0.01808782 0.018184016 0.017997408 0.019058464 -0.018154934 0.017390918 -0.018230565 -0.018337078 0.018316977 0.018109517 -0.018207934 -0.018032853 -0.01771684 0.018242897 -0.017667687 -0.018221201
world -0.032563303 0.0344933 -0.033026002 0.033265542 0.034314606 0.03350664 0.033186965 0.032288127 0.033883028 -0.03332297 0.033833478 0.03322862 0.032947604 0.033450343 -0.033090312 -0.03371329 -0.033624373 0.03361214 -0.03325135 0.032664597 0.03292687 -0.03313934 -0.033359498 0.033962134 -0.033371396 0.03306152 0.03267469 -0.03372181 -0.032400664 -0.03288232 -0.03351241 -0.033598144 -0.03400628 -0.032882046 -0.03336257 0.033787202 0.033478614 0.032590184 -0.033185445 0.033548437 -0.033026587 -0.032789357 0.033584345 0.032457724 -0.033426166 -0.033011694 -0.03454122 0.032947857 -0.03348755 -0.033109143
history -0.035812724 0.03680465 -0.035936993 0.035975598 0.036942933 0.03586168 0.036285482 0.036040228 0.036723707 -0.035736747 0.036848217 0.03562713 0.036132373 0.035259284 -0.036100898 -0.03682468 -0.037156593 0.036164016 -0.036484316 0.036563195 0.035150323 -0.036180552 -0.036695987 0.03596519 -0.036300287 0.035968926 0.03603354 -0.035515472 -0.036733467 -0.036885224 -0.036597732 -0.036443744 -0.036632065 -0.036507446 -0.03688014 0.0363275 0.03687226 0.03530549 -0.03625383 0.036200877 -0.036040742 -0.03587619 0.0366343 0.036374055 -0.035871573 -0.036267057 -0.036344826 0.0358143 -0.036337182 -0.036689308
despite -0.014869162 0.01516354 -0.015199043 0.015413016 0.014928218 0.015004849 0.014875529 0.014870411 0.014844976 -0.015155495 0.015501407 0.0149750775 0.014789864 0.015279802 -0.015402457 -0.015099997 -0.015143406 0.014612372 -0.014894945 0.014752744 0.015088578 -0.015055457 -0.014966072 0.015201398 -0.015437167 0.015269931 0.01540966 -0.015204929 -0.015453076 -0.01500983 -0.015067726 -0.01540776 -0.015347729 -0.015080956 -0.015162353 0.015450618 0.015194728 0.014735318 -0.015242619 0.01467749 -0.015209187 -0.014946975 0.014470829 0.015024378 -0.015170515 -0.014777497 -0.015182309 0.014773958 -0.014861025 -0.014855843
subject -0.021606207 0.021535838 -0.021475913 0.022036524 0.021594279 0.021839468 0.0216257 0.021737993 0.02187106 -0.02197593 0.02145878 0.02171759 0.022242619 0.021187594 -0.021645097 -0.021899093 -0.02121716 0.022061495 -0.021625143 0.021787781 0.02191912 -0.021301825 -0.021118604 0.021429945 -0.02173901 0.021641096 0.021680512 -0.02195636 -0.021769557 -0.022102728 -0.02124807 -0.021737363 -0.022111475 -0.021105103 -0.021135928 0.021290846 0.021220898 0.021676831 -0.021289354 0.0213387 -0.021314787 -0.022061344 0.021348905 0.021862825 -0.021698903 -0.021620423 -0.021939779 0.022115534 -0.02202387 -0.021345733
area -0.009876792 0.010521071 -0.0100230705 0.00982042 0.010391961 0.010548184 0.010006427 0.010301601 0.010278077 -0.01015578 0.009850322 0.008968511 0.010084713 0.009235897 -0.009227133 -0.009757658 -0.009948027 0.010608924 -0.00970978 0.010318074 0.010391492 -0.010196162 -0.009720672 0.009142417 -0.009503602 0.009827923 0.009616298 -0.009572487 -0.010676845 -0.010504875 -0.01002297 -0.009116679 -0.0102582965 -0.009754992 -0.010024466 0.01006101 0.009756442 0.010903656 -0.009776273 0.009925495 -0.009566435 -0.009899026 0.010099238 0.009816409 -0.010554309 -0.009480409 -0.009548258 0.010159783 -0.010063353 -0.009529061
learned -0.015893826 0.015829878 -0.015734004 0.015137559 0.014429464 0.0156718 0.016017325 0.015940825 0.016590793 -0.01579189 0.015426864 0.015375702 0.015646456 0.015486138 -0.015742853 -0.015549646 -0.014625986 0.015828734 -0.016114932 0.015958594 0.015197648 -0.015341173 -0.015665187 0.015472863 -0.015429424 0.01551105 0.016115256 -0.015737168 -0.01564238 -0.016032934 -0.015080655 -0.0141236335 -0.015075901 -0.015206413 -0.016286712 0.015667975 0.015827065 0.01605274 -0.015242944 0.015640764 -0.01598155 -0.016087223 0.014958496 0.015727168 -0.015512626 -0.01558919 -0.015399824 0.01616009 -0.015991438 -0.015631845
lot -0.039038926 0.039300498 -0.038868602 0.03937637 0.039468687 0.038798153 0.03822143 0.038829546 0.03890405 -0.03806637 0.03813681 0.03968019 0.039086703 0.038273398 -0.038917415 -0.038554225 -0.039305743 0.039218858 -0.039404683 0.038841516 0.037530646 -0.03877289 -0.038606986 0.038756315 -0.039052695 0.038721953 0.03809195 -0.038558036 -0.03922055 -0.039491136 -0.038819622 -0.039425757 -0.038562912 -0.039055966 -0.038800754 0.039347973 0.038705356 0.03721952 -0.03914198 0.039084356 -0.038621932 -0.038992263 0.03909408 0.039493818 -0.0385784 -0.03953358 -0.037981495 0.03882762 -0.038967863 -0.03885861
new -0.03580025 0.03597853 -0.035471246 0.035868827 0.035714403 0.035054512 0.034522668 0.035137583 0.03488815 -0.03438689 0.035325028 0.035209075 0.035268392 0.035754267 -0.035027966 -0.03562544 -0.0358435 0.035427056 -0.035669893 0.03616034 0.03505015 -0.03518606 -0.035138484 0.03497245 -0.03516133 0.035105456 0.034459267 -0.03503243 -0.035691094 -0.03522563 -0.035289615 -0.035091437 -0.035037562 -0.035672326 -0.034513067 0.03528197 0.035707977 0.03479648 -0.03485263 0.035408627 -0.03487197 -0.03606585 0.03544054 0.036049638 -0.035427887 -0.035368577 -0.03542981 0.03536453 -0.035675675 -0.03494386
information -0.038450345 0.03829504 -0.03873905 0.038465746 0.03940769 0.038131196 0.03874691 0.03842383 0.038555592 -0.038163688 0.037884973 0.03945712 0.039328624 0.038951013 -0.0385428 -0.038869828 -0.039484527 0.038264837 -0.039484907 0.03913601 0.03940066 -0.038025163 -0.03777867 0.0386632 -0.038737193 0.038342882 0.039246637 -0.038380653 -0.03949939 -0.039370034 -0.038900483 -0.038417745 -0.03902334 -0.038730137 -0.039649565 0.038538508 0.038019568 0.039590668 -0.039243806 0.03797921 -0.039107997 -0.03894649 0.038964357 0.03897636 -0.03800727 -0.039031673 -0.03943383 0.03845719 -0.039078075 -0.038680673
also -0.034976732 0.034244858 -0.034187265 0.03369136 0.034222346 0.035187352 0.03425131 0.034457356 0.034359425 -0.03425743 0.034955095 0.035616122 0.034561533 0.034498878 -0.03391269 -0.034545545 -0.03381856 0.03554151 -0.034947112 0.035599172 0.034605667 -0.034081366 -0.034388486 0.03502238 -0.034359124 0.03450398 0.034493938 -0.03427022 -0.034496292 -0.035246864 -0.034839254 -0.03483714 -0.03357329 -0.034472875 -0.034801107 0.034773346 0.034316372 0.032990795 -0.035245776 0.034499317 -0.03471665 -0.035319433 0.03342351 0.034715354 -0.035092965 -0.0343893 -0.03303526 0.03453852 -0.034473777 -0.03419746
one -0.060164005 0.060400613 -0.060238853 0.059576124 0.061215024 0.06034355 0.060722005 0.05998775 0.060233973 -0.06056951 0.06088899 0.05996663 0.05986654 0.05976278 -0.06066312 -0.059907988 -0.059759174 0.06035381 -0.060221847 0.060533024 0.05922492 -0.060237944 -0.0604524 0.060712732 -0.060926806 0.06033008 0.059788994 -0.060062863 -0.060357507 -0.060318083 -0.060662027 -0.06075277 -0.060183465 -0.060310468 -0.05966901 0.059888072 0.060145635 0.06047138 -0.059689693 0.060791556 -0.059654735 -0.059847135 0.061337166 0.05984637 -0.060158916 -0.060537778 -0.06051934 0.060055573 -0.05981725 -0.06062229
best -0.038113784 0.038650937 -0.037344933 0.038171254 0.038157113 0.038053103 0.03834098 0.03874878 0.03856947 -0.038062744 0.03901312 0.03771519 0.03819774 0.03896856 -0.03810591 -0.038210798 -0.038673367 0.03784814 -0.038550902 0.038160175 0.038672015 -0.036946025 -0.038325552 0.037733417 -0.038377695 0.03848581 0.038241543 -0.038131304 -0.038458977 -0.039385527 -0.038476367 -0.03860903 -0.038176563 -0.037929412 -0.038187716 0.038063135 0.037693754 0.03863458 -0.03600176 0.03864023 -0.037962366 -0.03827134 0.039268393 0.03779235 -0.03784358 -0.038963046 -0.036887556 0.03804902 -0.03872085 -0.038749814
descriptions -0.009924405 0.009981979 -0.010305733 0.010487458 0.0103843715 0.010231778 0.010529549 0.010582929 0.010786326 -0.009908354 0.010066161 0.009836536 0.010954988 0.010492165 -0.009788007 -0.009252947 -0.0110635925 0.0107808225 -0.009372068 0.011253603 0.010383345 -0.011057423 -0.010389521 0.010772674 -0.010482371 0.00985872 0.010218547 -0.010130791 -0.010554327 -0.010768564 -0.010617023 -0.009628007 -0.009171599 -0.010703824 -0.010316073 0.009667009 0.0106334025 0.008805525 -0.01144111 0.010128604 -0.011285731 -0.010576555 0.010503493 0.010089746 -0.010727021 -0.01009304 -0.009697873 0.010001753 -0.010100597 -0.010322419
ever -0.01653856 0.012960407 -0.013833287 0.014330005 0.01478639 0.014973679 0.014882174 0.014256417 0.014023414 -0.014417274 0.015508808 0.013670677 0.01426442 0.015251144 -0.015026336 -0.0151771875 -0.01653133 0.016453857 -0.014420359 0.014408271 0.01364028 -0.015780764 -0.013689359 0.014932825 -0.013564449 0.0154688675 0.016233686 -0.014588981 -0.015442828 -0.014972389 -0.014896226 -0.012898818 -0.012741095 -0.015510648 -0.015947472 0.0142722335 0.015822794 0.010357478 -0.014444896 0.017253678 -0.016423745 -0.01614718 0.01492008 0.015562515 -0.014282994 -0.015864728 -0.01452104 0.016302513 -0.01536519 -0.015712058
read -0.06700967 0.067298956 -0.06726064 0.06739748 0.06686145 0.06701721 0.06696811 0.0672533 0.06751659 -0.0674713 0.067226306 0.06699737 0.066687904 0.06662149 -0.067132175 -0.06736726 -0.06649323 0.066278316 -0.06632465 0.06703411 0.06746616 -0.0669758 -0.066913694 0.06708823 -0.06692664 0.06653501 0.0670691 -0.0667226 -0.06630224 -0.067295015 -0.067228004 -0.067355245 -0.06713638 -0.06662674 -0.06740029 0.0671433 0.06686548 0.06552833 -0.06599017 0.06671407 -0.066205524 -0.067144305 0.06705359 0.06635346 -0.06701393 -0.06694533 -0.06713267 0.067355715 -0.06726789 -0.06701087
thought -0.035526633 0.035857905 -0.035276815 0.034833416 0.03548454 0.036007166 0.035947513 0.034939393 0.035225764 -0.03567687 0.035397135 0.035300042 0.03612766 0.03522353 -0.03539652 -0.035727497 -0.03579738 0.03515831 -0.034783214 0.03541828 0.035175037 -0.03557215 -0.03530535 0.035498787 -0.035913635 0.035373352 0.035487548 -0.035438087 -0.03544049 -0.035164095 -0.035211775 -0.035621397 -0.035609186 -0.035814077 -0.035604853 0.035235558 0.035540365 0.035091206 -0.035341587 0.035210587 -0.03654359 -0.035156123 0.035286933 0.03615867 -0.034598496 -0.034773756 -0.03468501 0.034816623 -0.03490692 -0.03550621
provoking -0.011645504 0.011924482 -0.01131146 0.011578997 0.0120314965 0.011236385 0.011383245 0.011300842 0.01172878 -0.011503145 0.011442922 0.011379599 0.011705617 0.011511871 -0.011485349 -0.011213019 -0.0120572895 0.011374753 -0.010974234 0.010746941 0.01158972 -0.011439026 -0.011927612 0.0113661345 -0.011971903 0.011726761 0.0115573285 -0.011902079 -0.0117317205 -0.010926178 -0.011867295 -0.011598679 -0.01217562 -0.011863262 -0.011531385 0.011565619 0.011980595 0.011949956 -0.011786423 0.011949551 -0.0114067 -0.011786108 0.011981091 0.011772514 -0.010939558 -0.012096673 -0.011563847 0.012025997 -0.011092826 -0.0119173955
cross -0.012460281 0.0128565775 -0.013096004 0.012994663 0.012565661 0.013088818 0.0127686 0.012671167 0.012872046 -0.012902839 0.0124108 0.012737658 0.013040748 0.013096073 -0.012794908 -0.012957834 -0.013097226 0.012433615 -0.012485398 0.013079713 0.012627074 -0.012524347 -0.012508529 0.012626677 -0.012958013 0.012479044 0.012387974 -0.012599768 -0.012611016 -0.013150934 -0.0123555 -0.012499005 -0.012847375 -0.012699708 -0.012725917 0.01262176 0.012440199 0.013043443 -0.013080837 0.01278368 -0.013010652 -0.012714779 0.012743352 0.01263908 -0.012617686 -0.012634938 -0.012979109 0.012404315 -0.013065241 -0.012508106
contains -0.014353436 0.014193742 -0.014199084 0.014523745 0.013522279 0.01473955 0.014798257 0.014663478 0.014221397 -0.014610578 0.014550603 0.014252058 0.0144280465 0.014831042 -0.014273133 -0.014046473 -0.014348832 0.01453865 -0.01467858 0.014302966 0.014560118 -0.014694946 -0.014574788 0.014477306 -0.014599148 0.014421243 0.014056077 -0.014895697 -0.014580856 -0.014764811 -0.014053816 -0.014094088 -0.014721669 -0.014392239 -0.014238629 0.014214189 0.014449128 0.014642137 -0.014644846 0.014745115 -0.014276028 -0.014510329 0.01471623 0.014476708 -0.0145654 -0.014450321 -0.013481283 0.014726286 -0.014616902 -0.014623942
characters -0.05997162 0.0596069 -0.06011434 0.06005286 0.059959885 0.059538227 0.05902 0.059971772 0.05942501 -0.060663916 0.060233023 0.06005434 0.059803765 0.059889313 -0.060333688 -0.059084818 -0.058854718 0.059306387 -0.059644327 0.059975624 0.061360154 -0.059342645 -0.060005423 0.059046913 -0.060082 0.05963066 0.059578553 -0.059971374 -0.059844255 -0.060545214 -0.059406087 -0.06037431 -0.058928594 -0.060426995 -0.05921096 0.060213484 0.05874242 0.059878584 -0.059837345 0.059168003 -0.060176857 -0.060313877 0.0600843 0.06006118 -0.060258996 -0.06035893 -0.059585154 0.059536267 -0.05979423 -0.05941459
fall -0.018579988 0.01821705 -0.01792301 0.018416533 0.018322708 0.018358571 0.018178001 0.018266091 0.018242016 -0.0184448 0.018024886 0.018109962 0.01830649 0.017874407 -0.01854547 -0.018327408 -0.017909631 0.0179832 -0.01818139 0.017940111 0.018411452 -0.017892677 -0.018614078 0.018041871 -0.018565886 0.018612798 0.018119916 -0.01841587 -0.018525053 -0.017989714 -0.018420918 -0.018646834 -0.018228289 -0.017781809 -0.018440356 0.018320976 0.018556008 0.018328652 -0.018800857 0.018379249 -0.017928854 -0.018569179 0.01837984 0.018361777 -0.018651484 -0.018619463 -0.018125286 0.017891176 -0.017992653 -0.017870612
love -0.053321127 0.053151585 -0.05285629 0.05279958 0.05189682 0.05292741 0.05213313 0.05260719 0.052665323 -0.053337753 0.052452277 0.05242236 0.05312615 0.052993953 -0.052460004 -0.05232338 -0.05369131 0.05325123 -0.052184347 0.05253937 0.053141996 -0.052189194 -0.052600004 0.052399416 -0.052312266 0.052512057 0.05271376 -0.053017195 -0.05337789 -0.05290517 -0.052818142 -0.053280417 -0.052250262 -0.05236561 -0.052780554 0.052623693 0.05335889 0.05226926 -0.053527243 0.05254138 -0.054405227 -0.053358644 0.052886914 0.052698974 -0.053507905 -0.053181376 -0.05261479 0.0528273 -0.05258184 -0.05308863
want -0.03601012 0.035614736 -0.035634235 0.036438953 0.036082126 0.03642594 0.036239788 0.035883628 0.035974275 -0.036240444 0.036136486 0.0361136 0.036738247 0.036074728 -0.036259733 -0.035423312 -0.035726212 0.036498483 -0.03604133 0.03547776 0.035798807 -0.03639784 -0.03656878 0.035829313 -0.036089536 0.035879012 0.03617804 -0.035899524 -0.0358697 -0.035955105 -0.03620647 -0.03529827 -0.03595708 -0.036050305 -0.035609663 0.035760608 0.035621583 0.036315423 -0.035855174 0.035189107 -0.035650175 -0.036330745 0.035545763 0.036169898 -0.036531996 -0.036839597 -0.035800736 0.036259543 -0.036191475 -0.03620626
different -0.029542865 0.029889885 -0.028712148 0.029486021 0.029325627 0.029565806 0.029369602 0.02963841 0.029638201 -0.029678352 0.02939102 0.028583905 0.029380646 0.029116396 -0.029462827 -0.028990025 -0.02878645 0.028912066 -0.02998617 0.029417481 0.029352799 -0.029192552 -0.029885396 0.029410474 -0.02919979 0.029196557 0.029266154 -0.029360779 -0.02894391 -0.028876208 -0.029095018 -0.029573627 -0.029490953 -0.02938596 -0.029154196 0.028940849 0.029294234 0.026397502 -0.028739415 0.029638598 -0.028067233 -0.029679706 0.028838923 0.029246992 -0.029550135 -0.029704291 -0.028310737 0.029590273 -0.029133722 -0.029753542
plot -0.047809508 0.047133807 -0.048278403 0.047859877 0.048175555 0.047498368 0.048131965 0.04773045 0.04747885 -0.047590405 0.04742295 0.048361704 0.04777157 0.04727379 -0.047706015 -0.047610678 -0.04813091 0.048069794 -0.04806262 0.048062082 0.047938943 -0.04759231 -0.047135487 0.048155215 -0.048681173 0.04753801 0.04817265 -0.047635473 -0.04717085 -0.048257343 -0.047212336 -0.048172876 -0.047902398 -0.047409065 -0.047884867 0.047629345 0.048474163 0.04735988 -0.048054826 0.047683526 -0.047355194 -0.048497077 0.04817765 0.04805696 -0.04709358 -0.047279626 -0.048295423 0.04782257 -0.047010474 -0.048128486
story -0.06681686 0.06637572 -0.06658679 0.067023225 0.06662632 0.066922195 0.06631541 0.06697089 0.06678802 -0.066176005 0.06640715 0.0666642 0.06716647 0.065656416 -0.06658223 -0.06604878 -0.06599549 0.06629651 -0.06729221 0.066882364 0.06750156 -0.06706935 -0.066044144 0.066864684 -0.06718782 0.066477686 0.06627174 -0.06697937 -0.06660799 -0.066582166 -0.066353165 -0.06633918 -0.06694176 -0.06650173 -0.06483362 0.066303216 0.06564114 0.0672133 -0.06702998 0.066517435 -0.065703355 -0.06684859 0.06723784 0.06603839 -0.06638899 -0.06691848 -0.067080334 0.066542424 -0.067143425 -0.06594044
lines -0.014437637 0.015360819 -0.015456757 0.015081305 0.015104079 0.015474663 0.0154529875 0.014840721 0.015233709 -0.015326556 0.015781954 0.015181732 0.014836361 0.015047016 -0.01568498 -0.014611038 -0.015058187 0.015741542 -0.015851365 0.01572597 0.014754458 -0.015423912 -0.015427069 0.015434532 -0.014989692 0.015615729 0.015642779 -0.014991703 -0.015601295 -0.014698139 -0.015394546 -0.01585476 -0.015152127 -0.015783219 -0.015125755 0.015150509 0.014764667 0.015353203 -0.014577121 0.014890821 -0.014753508 -0.015277721 0.015443675 0.0151457265 -0.015825769 -0.014800939 -0.014882027 0.0153929945 -0.015781302 -0.0151546085
unexpected -0.011483166 0.011114965 -0.011073178 0.011577998 0.011404794 0.011657922 0.011413139 0.011419486 0.01163905 -0.011793602 0.0108500505 0.011216413 0.011020484 0.011996755 -0.011091926 -0.011637543 -0.01142077 0.012020703 -0.011311181 0.012087575 0.011524313 -0.011563429 -0.011889215 0.011837059 -0.01176216 0.011147174 0.011515338 -0.011222908 -0.01200505 -0.010894476 -0.01145569 -0.011988857 -0.010835092 -0.011009215 -0.011449832 0.011226262 0.011531964 0.012367767 -0.011911269 0.011418437 -0.011755346 -0.011694299 0.010892626 0.011329611 -0.011974686 -0.011523303 -0.011172039 0.011867073 -0.011626848 -0.011406057
ways -0.017801126 0.01803958 -0.018116347 0.017733809 0.01761013 0.017378693 0.018091774 0.017493332 0.017523421 -0.017535554 0.017739492 0.017861377 0.017731426 0.017314691 -0.017468087 -0.017968327 -0.018294923 0.017537756 -0.01791363 0.017746884 0.017407304 -0.018106814 -0.017539028 0.017805394 -0.017850345 0.017535659 0.01760639 -0.017849153 -0.01810313 -0.017495288 -0.017804466 -0.017797556 -0.017306497 -0.01798375 -0.01789395 0.01790697 0.018012313 0.016475938 -0.017719407 0.017879622 -0.017938294 -0.017532464 0.017154591 0.017977469 -0.01788551 -0.017411062 -0.01781657 0.01737174 -0.01747545 -0.017410811
stories -0.039839167 0.040261377 -0.04096642 0.04018051 0.04077893 0.040035717 0.040737648 0.04079482 0.04043386 -0.040602807 0.04060273 0.041403003 0.04047335 0.04060487 -0.040508244 -0.040804293 -0.04073584 0.040516388 -0.04036391 0.040064134 0.040798206 -0.04028246 -0.04078511 0.040506653 -0.040874388 0.040546652 0.040940616 -0.040735133 -0.03987924 -0.040321156 -0.040547986 -0.040407624 -0.0405588 -0.04050449 -0.0404088 0.03981311 0.04089504 0.039707977 -0.040339667 0.039721332 -0.041203044 -0.041081123 0.040652454 0.041088764 -0.040323175 -0.040283702 -0.039903246 0.0400661 -0.0405837 -0.04111215
full -0.020985559 0.021521084 -0.021046175 0.021300348 0.021814236 0.021079725 0.02090891 0.021437189 0.020983826 -0.021089403 0.021547202 0.021366006 0.021049071 0.021292107 -0.02096707 -0.021177642 -0.02007947 0.020759448 -0.020762816 0.020838149 0.020890653 -0.021411344 -0.020890314 0.021342138 -0.020522123 0.021269135 0.020424632 -0.020020002 -0.020781275 -0.021529894 -0.021151109 -0.021267727 -0.021177731 -0.021074053 -0.020782122 0.021078786 0.0208517 0.021176588 -0.020275803 0.02088012 -0.020149283 -0.02066245 0.02080889 0.02016655 -0.020770332 -0.021251103 -0.020740805 0.020771265 -0.021520812 -0.021089934
hope -0.022451809 0.022939276 -0.022672195 0.022555148 0.022811431 0.021861728 0.022596203 0.022171633 0.022487432 -0.022777596 0.022530587 0.023264594 0.022854218 0.0222359 -0.02276224 -0.022856971 -0.02263193 0.023077976 -0.022109617 0.022618562 0.021578737 -0.02262574 -0.02200489 0.022367002 -0.022427758 0.022269426 0.022760661 -0.022620322 -0.022652432 -0.022223268 -0.022566041 -0.022491528 -0.022342604 -0.022309888 -0.022192389 0.022745376 0.022628758 0.021215534 -0.022328239 0.022731414 -0.022523701 -0.022644581 0.02253781 0.022315735 -0.02246208 -0.022633515 -0.02235492 0.022741823 -0.022616789 -0.023018636
make -0.03856259 0.03856314 -0.03871352 0.038661424 0.038773954 0.038769946 0.03773153 0.0384187 0.03833184 -0.03884746 0.038624387 0.03780035 0.038155086 0.03857005 -0.038519215 -0.038026378 -0.03919169 0.038520094 -0.03873087 0.03837725 0.038460057 -0.03906728 -0.03851393 0.038753666 -0.03799576 0.03804463 0.038095847 -0.038619388 -0.03869603 -0.037716143 -0.038295433 -0.038426 -0.038150385 -0.03825382 -0.038842194 0.038089607 0.038091302 0.03850299 -0.03889902 0.03838834 -0.038776755 -0.037981275 0.03914786 0.038991548 -0.03868299 -0.037862655 -0.038521882 0.03846287 -0.03856974 -0.03873125
actually -0.010839829 0.011213673 -0.011108171 0.012084742 0.011198088 0.011710718 0.012129442 0.011616267 0.011328097 -0.012425971 0.010755103 0.010627244 0.012184056 0.011780845 -0.012011981 -0.010480892 -0.011381741 0.011046897 -0.012116656 0.010324281 0.009985262 -0.011340288 -0.011394978 0.011935656 -0.011631332 0.011872858 0.011395864 -0.011344073 -0.01059095 -0.011166682 -0.010848894 -0.011764908 -0.01012409 -0.011448341 -0.010020828 0.010910441 0.011136781 0.008753391 -0.011044871 0.0119479075 -0.009932394 -0.010006746 0.010540755 0.012552598 -0.010740496 -0.010564201 -0.012047052 0.010929502 -0.010430564 -0.010727227
care -0.03537986 0.035834275 -0.03559227 0.034963008 0.03577772 0.034958977 0.035418708 0.03541133 0.035208087 -0.034896757 0.03557576 0.034735125 0.034565426 0.034497388 -0.034606375 -0.035823513 -0.034136377 0.035309967 -0.03526175 0.0354301 0.035382427 -0.035429925 -0.035073847 0.03503928 -0.035543937 0.035607137 0.035054255 -0.035275448 -0.03560224 -0.036019057 -0.03423969 -0.034060977 -0.03451218 -0.035901614 -0.03497171 0.03520041 0.03437556 0.034653563 -0.03538809 0.033604585 -0.035552017 -0.035525303 0.034831624 0.035021994 -0.035072967 -0.035263844 -0.035471357 0.034666743 -0.03502338 -0.03494026
sequel -0.013984431 0.014585606 -0.013876787 0.013535468 0.013223914 0.0143805565 0.013827441 0.013898835 0.01292001 -0.012513976 0.012928518 0.012939935 0.01220029 0.013008509 -0.014004381 -0.013498567 -0.013753889 0.014097997 -0.014654365 0.013751131 0.013345182 -0.014565254 -0.013179792 0.01329866 -0.012443056 0.013068509 0.014770019 -0.013764792 -0.013808345 -0.013904763 -0.013113484 -0.012242616 -0.012703609 -0.013457941 -0.014395937 0.012267182 0.012907271 0.013960669 -0.014509495 0.013450622 -0.014394351 -0.01300839 0.013468426 0.014773517 -0.0141978 -0.013966627 -0.014345672 0.013208491 -0.0137552405 -0.013174511
see -0.033375245 0.032558955 -0.032342967 0.03276911 0.033576854 0.03300959 0.033371504 0.032944974 0.03431982 -0.034139168 0.03443621 0.033751998 0.032884974 0.0331983 -0.03262939 -0.033521168 -0.033601075 0.032827012 -0.03378507 0.03298439 0.03362026 -0.033226285 -0.03342899 0.03293438 -0.034178272 0.0328137 0.03385929 -0.033667788 -0.03366496 -0.032986045 -0.033009887 -0.03273462 -0.034144554 -0.033359535 -0.033105418 0.033846702 0.03293362 0.032577276 -0.034181077 0.034005783 -0.033219114 -0.0333157 0.033378903 0.033511896 -0.033715054 -0.033290826 -0.03301201 0.032831606 -0.0336685 -0.033411052
life -0.037120394 0.037168033 -0.036393028 0.03637516 0.037151944 0.036603827 0.036547914 0.036464103 0.036466368 -0.036696304 0.035393108 0.036328334 0.036232516 0.035847608 -0.03690782 -0.03723434 -0.03566301 0.036447812 -0.036183625 0.036618177 0.035170384 -0.036734752 -0.036526702 0.036326047 -0.036624536 0.03553162 0.03680539 -0.0358155 -0.035876337 -0.036515083 -0.036065593 -0.03693893 -0.036448102 -0.036069605 -0.035745144 0.036138996 0.03649137 0.03695481 -0.036569633 0.035883293 -0.03648293 -0.03670997 0.036784254 0.035927292 -0.036578707 -0.035850335 -0.03661292 0.036854994 -0.03563924 -0.036597468
unfold 0.0011026624 -0.0005870466 0.0018570595 -0.00025045683 -0.0016758287 -0.0010392655 -0.0022318324 -0.0024635983 -0.0027653396 0.00097473426 -0.0008356909 -0.0009787312 -0.0014216519 -0.002268468 0.000751806 0.0006736097 0.0010297734 -0.00063172687 0.0006729507 -0.0004158244 -0.003074594 0.0020712577 0.0014248797 -0.0017493867 0.0024583696 -0.0015918365 -0.0011155378 0.00219796 0.001510685 0.0017863414 0.0021981765 0.0013794511 0.0038271297 0.0018468807 0.0018866141 -0.00087447226 0.0003833765 -0.0018340687 0.0009107288 -0.0016006472 0.00040608997 0.0008615107 -0.003012231 -0.0035659818 0.0010973362 0.0010196584 -1.2615947e-06 -0.0021190129 0.00032467121 0.0021586295
various -0.015870957 0.0154611785 -0.01565428 0.0159483 0.015107042 0.015836852 0.015261881 0.015545727 0.015214509 -0.015260023 0.015491725 0.015427097 0.01498291 0.014658305 -0.01576411 -0.015519327 -0.014876069 0.015647044 -0.015441225 0.015745658 0.015536445 -0.014739117 -0.015483137 0.016002914 -0.0155733265 0.0154447 0.015580542 -0.015410989 -0.014956408 -0.015330347 -0.015825111 -0.015976807 -0.015413418 -0.015336064 -0.015587486 0.015744392 0.015519891 0.015078414 -0.015764786 0.015703458 -0.01477927 -0.015945459 0.015429543 0.015583606 -0.015263212 -0.015290752 -0.015314096 0.015745683 -0.015670612 -0.01571916
really -0.05649074 0.05629254 -0.05612872 0.05647763 0.05610509 0.05582073 0.054716248 0.056086894 0.055611823 -0.055773225 0.056411386 0.055923942 0.056556262 0.056559652 -0.0552335 -0.056882873 -0.0565113 0.056723453 -0.05651771 0.055675514 0.05575322 -0.05553012 -0.05574032 0.055276353 -0.055894323 0.05574123 0.055220477 -0.056367755 -0.05672778 -0.056468938 -0.056053173 -0.056882918 -0.056261588 -0.056444425 -0.056215316 0.05558271 0.05667973 0.055904873 -0.055612896 0.05421843 -0.05588446 -0.056715604 0.05631261 0.055757243 -0.056349482 -0.056091875 -0.056609184 0.05558618 -0.055496365 -0.054837864
great -0.057525773 0.057597525 -0.057973612 0.058484077 0.057103593 0.057716947 0.0578448 0.057262827 0.057880204 -0.057852767 0.05779428 0.057586573 0.057137452 0.057603918 -0.05766527 -0.05728787 -0.05802923 0.057836458 -0.057404496 0.058279246 0.057439923 -0.057772614 -0.057031125 0.05801145 -0.057097495 0.057387933 0.057736166 -0.05880862 -0.05711712 -0.057362754 -0.057281625 -0.05744636 -0.05817809 -0.057265718 -0.05875122 0.057853248 0.057535518 0.058233675 -0.056798432 0.05755186 -0.05724259 -0.0571727 0.05758123 0.058071397 -0.05792173 -0.0572063 -0.05757692 0.057696305 -0.057656094 -0.058120675
fun -0.03183344 0.03140627 -0.03247172 0.032490026 0.032951146 0.03252604 0.031949468 0.032095045 0.031983286 -0.03275354 0.031464957 0.030885592 0.032046612 0.03165588 -0.03075039 -0.032587357 -0.030821705 0.032256637 -0.03216814 0.0327148 0.032532662 -0.032249104 -0.03121795 0.032224126 -0.032774746 0.032371424 0.032250702 -0.031016918 -0.032290574 -0.032718245 -0.031945247 -0.03285863 -0.031979933 -0.03174734 -0.03210017 0.031828105 0.032019 0.031154603 -0.031588625 0.032318365 -0.031767204 -0.0319924 0.032783307 0.031984743 -0.032490212 -0.031859424 -0.032043386 0.032597173 -0.031516034 -0.032449625
liked -0.028102499 0.027150525 -0.027981523 0.02785291 0.027491843 0.02776744 0.027607836 0.02768307 0.027438557 -0.027598314 0.028032435 0.028395785 0.027482398 0.027610367 -0.027720567 -0.02702892 -0.028342504 0.02770045 -0.028160842 0.028234456 0.02752861 -0.027837548 -0.02795173 0.027957955 -0.028181326 0.027828822 0.027512142 -0.028024128 -0.027786521 -0.027589517 -0.027646972 -0.027224518 -0.028081954 -0.028094906 -0.02814425 0.027212838 0.027492955 0.02664826 -0.028204989 0.027851488 -0.027090492 -0.027824914 0.027152581 0.02735723 -0.027452664 -0.02774702 -0.027583146 0.028095178 -0.02760338 -0.027361738
hard -0.031736225 0.033087738 -0.03129542 0.03214802 0.031697623 0.03227853 0.03200599 0.03152026 0.032210007 -0.032436304 0.032240443 0.03142085 0.03246547 0.032246444 -0.03222564 -0.031110715 -0.031538047 0.031778693 -0.032932874 0.032233 0.031948086 -0.031536955 -0.032313343 0.031585325 -0.03175807 0.03251654 0.03194046 -0.03245961 -0.03259027 -0.032339178 -0.03137541 -0.032215048 -0.031611294 -0.031882912 -0.03239543 0.032347284 0.032287996 0.032997254 -0.03140521 0.03214003 -0.031787273 -0.031383146 0.03226371 0.031948816 -0.032574978 -0.032134198 -0.032094482 0.031321995 -0.031583656 -0.031419594
time -0.058195546 0.05808377 -0.058009915 0.05893897 0.05883833 0.05897758 0.05914621 0.05898033 0.058499105 -0.057922605 0.0590567 0.058765274 0.059344236 0.058753636 -0.058929645 -0.057724465 -0.05882186 0.059204794 -0.05894936 0.05784434 0.05835204 -0.059049726 -0.058088157 0.05921889 -0.059050154 0.05846078 0.05767032 -0.059120066 -0.05896766 -0.058722388 -0.059114482 -0.059364367 -0.059129056 -0.05895983 -0.058678437 0.05889212 0.05884218 0.0574664 -0.058502775 0.05885618 -0.058595154 -0.059227847 0.059237298 0.058307655 -0.058527585 -0.05905469 -0.059002407 0.058794603 -0.05882977 -0.059175838
putting -0.012575418 0.012703333 -0.012852185 0.012845875 0.012948521 0.012308503 0.012700393 0.012824975 0.012431098 -0.0121786 0.012594906 0.012151104 0.012794018 0.012533252 -0.0122344 -0.012482876 -0.012685526 0.012480196 -0.012350165 0.012754872 0.0125955045 -0.0126909325 -0.012327174 0.012488565 -0.012369872 0.0127939535 0.012406496 -0.012794232 -0.012377957 -0.012187711 -0.012373971 -0.01243054 -0.012304921 -0.012650313 -0.0123101855 0.012374426 0.012747205 0.012498647 -0.012739946 0.012560132 -0.012463325 -0.012829234 0.012547537 0.0121572325 -0.012789917 -0.012748608 -0.012458444 0.01241466 -0.0126714725 -0.012191753
get -0.045444824 0.045977697 -0.044972766 0.045705814 0.04534886 0.04609112 0.045447323 0.045899738 0.04515811 -0.045459054 0.045095216 0.045550074 0.046005853 0.044537 -0.045395605 -0.045501623 -0.045703318 0.045780707 -0.045019656 0.04553314 0.042205554 -0.04552758 -0.045319207 0.04507008 -0.04480724 0.04552555 0.045416597 -0.044992484 -0.045516297 -0.046197858 -0.044761326 -0.04569035 -0.044495635 -0.045132022 -0.04637216 0.045747288 0.046055254 0.041672397 -0.0450709 0.04512434 -0.045457706 -0.044936184 0.045448042 0.044293832 -0.045807615 -0.045813702 -0.04573435 0.045053884 -0.04571945 -0.045905296
anything -0.015406366 0.01689419 -0.01705945 0.016284198 0.015932005 0.015155583 0.014576712 0.014640527 0.014379638 -0.016091153 0.01655618 0.015602327 0.015582259 0.015270617 -0.016773425 -0.016062701 -0.015637914 0.01571066 -0.016206777 0.016760848 0.015493311 -0.015561766 -0.015984183 0.014845263 -0.015812889 0.017004661 0.017073762 -0.016892258 -0.016927771 -0.016797325 -0.01654535 -0.01608003 -0.016176986 -0.016772974 -0.016312987 0.01658175 0.015665427 0.015868707 -0.016456543 0.015290681 -0.015356408 -0.015676862 0.016780779 0.01495981 -0.015893182 -0.016248079 -0.016426194 0.016191747 -0.015771234 -0.015981426
else -0.02338275 0.023458479 -0.02312737 0.023793874 0.022912337 0.02287926 0.023487339 0.023842972 0.02330052 -0.023488116 0.023119424 0.023305545 0.023043966 0.023628693 -0.023703227 -0.023763768 -0.023441328 0.02350154 -0.023442289 0.02294204 0.023278482 -0.022954984 -0.023026656 0.023809584 -0.023476562 0.023277104 0.023402315 -0.023994494 -0.023829283 -0.022991378 -0.023640828 -0.022346752 -0.023480982 -0.023165418 -0.02353064 0.023890272 0.024039837 0.024859983 -0.0237341 0.023193434 -0.024253255 -0.022915572 0.02325116 0.023216559 -0.022879142 -0.023026085 -0.0231823 0.023466002 -0.023252457 -0.023522334
done -0.03371 0.03360258 -0.034023248 0.03300254 0.03329232 0.033217095 0.033370107 0.03333619 0.03322631 -0.033971347 0.032940112 0.033065308 0.032995813 0.032856915 -0.033025153 -0.03275154 -0.033503793 0.03314553 -0.0339596 0.03322293 0.033423036 -0.03320827 -0.032738946 0.03290471 -0.03304084 0.03364194 0.033738356 -0.03236792 -0.03392096 -0.034008294 -0.03401981 -0.03361728 -0.0333233 -0.033600666 -0.03303026 0.032631002 0.03408953 0.03292295 -0.033619136 0.03411314 -0.033211205 -0.03329546 0.03335586 0.03340871 -0.033064432 -0.03302103 -0.03426954 0.03358308 -0.033863686 -0.032456033
suspense -0.0153345475 0.014655702 -0.015231769 0.014095698 0.014675624 0.014813535 0.015145237 0.01500035 0.014744066 -0.014565756 0.013989633 0.014811946 0.015376854 0.014109161 -0.015268113 -0.014654348 -0.014823614 0.015077973 -0.014635226 0.014601564 0.0147646805 -0.014664566 -0.014752007 0.01424364 -0.014512418 0.01518049 0.014718281 -0.013969611 -0.014971651 -0.014831073 -0.015100424 -0.013997649 -0.014735684 -0.015295318 -0.014574891 0.01486661 0.014463598 0.015578265 -0.015109387 0.014553386 -0.014554959 -0.014958619 0.015235316 0.014915792 -0.015119221 -0.014612349 -0.014357713 0.014871454 -0.014828227 -0.014800984
kept -0.029359354 0.030206533 -0.028706089 0.029866902 0.02951793 0.029478626 0.029034903 0.029082587 0.02876863 -0.029741924 0.029670976 0.029025134 0.029165119 0.028711285 -0.029317241 -0.029498657 -0.028205333 0.029116914 -0.030093575 0.029558744 0.028668435 -0.029214256 -0.029151661 0.028829139 -0.02845786 0.02869008 0.028603708 -0.029393584 -0.030035341 -0.029179525 -0.029473681 -0.029243397 -0.029188216 -0.029337637 -0.028105615 0.028961664 0.0292418 0.02880649 -0.02908919 0.029746387 -0.029326908 -0.028702572 0.029645696 0.029247975 -0.029425977 -0.029248683 -0.029708007 0.028543288 -0.029564632 -0.029438842
intrigued -0.015255506 0.014488015 -0.015278491 0.015524573 0.014960163 0.015522256 0.01508942 0.015125807 0.014998784 -0.0154269915 0.0150257265 0.015269321 0.015425299 0.014515752 -0.015372688 -0.014471905 -0.015611081 0.01522399 -0.014471611 0.014953138 0.0143259615 -0.01494378 -0.01503662 0.01495452 -0.014680013 0.015542425 0.015255119 -0.0150279505 -0.015332142 -0.015471657 -0.01544714 -0.01490537 -0.015166486 -0.015306951 -0.015104277 0.015026116 0.014962827 0.015201911 -0.015464228 0.014793242 -0.015687691 -0.015511973 0.015164241 0.014947093 -0.014899326 -0.015070562 -0.014857458 0.015274241 -0.01534989 -0.015012698
end -0.03674248 0.035427216 -0.035779536 0.036038876 0.035962284 0.03619508 0.034712434 0.0361822 0.035243478 -0.03516075 0.03553706 0.036361318 0.035619747 0.036304295 -0.03656698 -0.034629017 -0.035172023 0.035493653 -0.036332097 0.03634806 0.03555742 -0.036359414 -0.03576061 0.036529068 -0.03597381 0.035290908 0.03583138 -0.03611309 -0.035720967 -0.03622137 -0.03605702 -0.03623028 -0.036054257 -0.03654117 -0.035854846 0.03588034 0.035303093 0.03398478 -0.035178803 0.036008835 -0.03446901 -0.03639735 0.03560431 0.036571994 -0.03609443 -0.036418177 -0.036680315 0.03639853 -0.036120486 -0.03563447
discover -0.012119128 0.0118078645 -0.012328205 0.012006406 0.012393097 0.011890711 0.011949832 0.011837316 0.011748398 -0.01178454 0.0123945335 0.012180729 0.012162698 0.011990747 -0.012273208 -0.011887491 -0.012269342 0.011808744 -0.01239905 0.012273164 0.011856212 -0.011691846 -0.011820695 0.011821291 -0.012314322 0.0119437035 0.012375221 -0.011904051 -0.012248985 -0.012483029 -0.012356234 -0.012518801 -0.012175791 -0.011860811 -0.012179387 0.011851956 0.012292979 0.012318937 -0.011900863 0.012173893 -0.01207485 -0.012372675 0.012214626 0.012032184 -0.011777676 -0.012224484 -0.012170204 0.012037776 -0.012430829 -0.011788735
could -0.045461126 0.04538121 -0.045136362 0.045530852 0.0453486 0.045201026 0.04590991 0.045308873 0.04531151 -0.045511596 0.04555405 0.046207428 0.045445096 0.04602441 -0.045593504 -0.045567803 -0.045089774 0.04497423 -0.045212723 0.04586882 0.045363665 -0.04558403 -0.045666136 0.045154713 -0.045897517 0.04506881 0.045152836 -0.04609201 -0.045792583 -0.045491736 -0.045068238 -0.045202736 -0.04501475 -0.045989055 -0.045781065 0.04554105 0.04571511 0.04739583 -0.044608794 0.04546745 -0.045638103 -0.04499021 0.045206588 0.045188945 -0.04526393 -0.045744207 -0.044956468 0.045007423 -0.045465462 -0.045146182
hardly -0.012528306 0.01145142 -0.012402823 0.0120730335 0.012302204 0.011403807 0.011899953 0.011915215 0.011659651 -0.012678781 0.012462263 0.012140808 0.0125759 0.01260755 -0.012122216 -0.011515619 -0.011524501 0.012087269 -0.011668878 0.01261145 0.0118663665 -0.012261801 -0.012679184 0.012547544 -0.012085502 0.012489849 0.01217941 -0.012436501 -0.01222814 -0.012754319 -0.012059733 -0.012311651 -0.012475363 -0.012268254 -0.012288543 0.012440185 0.012444615 0.012082665 -0.011425969 0.012506126 -0.011524684 -0.0124663655 0.012219825 0.012295224 -0.012234316 -0.012216247 -0.011745068 0.012315708 -0.011943338 -0.012193841
wait -0.025262725 0.024772929 -0.024714645 0.023687126 0.024670035 0.024835499 0.024338784 0.024629852 0.023936093 -0.02492843 0.024310863 0.024114547 0.024452077 0.024052918 -0.025044978 -0.02510676 -0.023736354 0.02513954 -0.023801021 0.023799155 0.024616634 -0.024065 -0.02385898 0.024831887 -0.02340633 0.024712741 0.024526304 -0.024060676 -0.024152173 -0.023976408 -0.02489051 -0.024915988 -0.02380756 -0.023406552 -0.023841254 0.023797857 0.024633903 0.024750778 -0.025265604 0.024059588 -0.023782475 -0.02333421 0.024377456 0.02503685 -0.023795491 -0.024323301 -0.024554607 0.024284124 -0.024484668 -0.023095068
arrive -0.008034727 0.00973051 -0.009530621 0.009183553 0.008947735 0.009062942 0.0095025115 0.009062633 0.009653554 -0.009800617 0.008562001 0.009837685 0.00894311 0.009224972 -0.00927732 -0.009901584 -0.009409223 0.009348886 -0.007847659 0.009026116 0.0075876415 -0.008918536 -0.009386194 0.009281821 -0.009355741 0.009596457 0.008528884 -0.008602213 -0.0089483345 -0.009354589 -0.009564798 -0.009442647 -0.009408222 -0.00931533 -0.009538403 0.009486406 0.008405819 0.008326073 -0.008432385 0.009309399 -0.008718495 -0.008983049 0.009369957 0.007731538 -0.009397824 -0.009073955 -0.008793586 0.009460892 -0.009662839 -0.009617383
stopped -0.017108442 0.017428627 -0.016594859 0.01714513 0.017237535 0.017210076 0.017170573 0.017759766 0.017197164 -0.01758505 0.016967492 0.01707877 0.017266298 0.01686871 -0.016722083 -0.017262008 -0.016898558 0.017079914 -0.017659882 0.017049698 0.017843928 -0.017509136 -0.017076364 0.017174019 -0.01724576 0.01753147 0.017706698 -0.017713519 -0.017144918 -0.01705612 -0.017594714 -0.016667664 -0.016916718 -0.01761713 -0.016753605 0.016974933 0.016105566 0.017046701 -0.017353637 0.017475376 -0.01735208 -0.017622536 0.017334849 0.01774574 -0.017308604 -0.017218914 -0.017246323 0.01648835 -0.017757624 -0.017324176
everything -0.030641131 0.030958174 -0.03089802 0.031014336 0.031315945 0.0308433 0.03067901 0.030731793 0.031461027 -0.03010332 0.03056809 0.030703798 0.031582378 0.029600779 -0.030926576 -0.030688077 -0.031425238 0.030351982 -0.030166576 0.03142138 0.029156381 -0.029887144 -0.03132014 0.03093339 -0.03132474 0.030435907 0.029501688 -0.030616548 -0.03155886 -0.029766785 -0.03092529 -0.030878652 -0.031284038 -0.031337004 -0.030939983 0.031249281 0.030810622 0.030270698 -0.030711511 0.029803725 -0.030229067 -0.03058389 0.03074073 0.030634684 -0.030763578 -0.030731311 -0.03064205 0.030594818 -0.031258695 -0.0305287
box -0.021094913 0.02073429 -0.020568704 0.02113876 0.020161 0.020482395 0.02019986 0.020330712 0.020336332 -0.02096741 0.020757822 0.021353796 0.020265866 0.020302098 -0.02157185 -0.020347944 -0.020961264 0.020422917 -0.02029105 0.021317843 0.02081653 -0.021560136 -0.020273851 0.020860871 -0.020331807 0.02036685 0.021448476 -0.020863837 -0.020979095 -0.020984637 -0.020895084 -0.020936329 -0.020472318 -0.02042937 -0.020275109 0.020080497 0.020536354 0.021410147 -0.020243611 0.02085955 -0.020374037 -0.020704158 0.021083396 0.021448275 -0.02109638 -0.021186184 -0.020284088 0.021525122 -0.020685969 -0.020995231
style -0.022028115 0.022388382 -0.022354677 0.022220703 0.021944897 0.021860024 0.021654157 0.022499785 0.02237708 -0.022053728 0.02235444 0.022236323 0.022451958 0.022022003 -0.02202252 -0.021588322 -0.020936724 0.022019178 -0.022061678 0.022845507 0.021709 -0.021708636 -0.021333147 0.02211011 -0.021902477 0.021994594 0.022307621 -0.021587986 -0.022088332 -0.021811882 -0.021968551 -0.021835519 -0.022010487 -0.022466062 -0.021799909 0.022134362 0.021839602 0.021055892 -0.0212441 0.021863807 -0.021723147 -0.022601554 0.02149314 0.021951474 -0.022320602 -0.021754436 -0.021336172 0.022232566 -0.02210857 -0.021779371
3 -0.025121339 0.0257085 -0.025253499 0.024573043 0.0254731 0.024616702 0.025104389 0.025963536 0.024993049 -0.024012059 0.024580503 0.024959104 0.024361057 0.02414813 -0.02526776 -0.026709316 -0.024991203 0.024351522 -0.025562651 0.02552966 0.026303861 -0.024773415 -0.025568105 0.024834594 -0.024972761 0.024989171 0.025374293 -0.02587627 -0.024912305 -0.025445424 -0.02532757 -0.024840174 -0.025045196 -0.025385067 -0.024332082 0.024858002 0.025629144 0.0259131 -0.024759132 0.024853736 -0.026110973 -0.025645321 0.025035257 0.025108865 -0.024552152 -0.025051171 -0.024811456 0.024940388 -0.02557296 -0.024808023
front -0.0025101358 0.003007267 -0.0028005545 0.002533705 0.002598607 0.0027904308 0.0029503002 0.0025260285 0.0027167124 -0.00237706 0.003078595 0.0021682167 0.003162649 0.0019076567 -0.0027773697 -0.0028878362 -0.002662706 0.0022627853 -0.0027110924 0.0024033478 0.00234272 -0.0021471696 -0.0023732376 0.0025904025 -0.0028632493 0.002573412 0.0023144523 -0.0024797996 -0.0028228438 -0.003057519 -0.0026385246 -0.0025393872 -0.0021772485 -0.0029604754 -0.0022642734 0.0027459424 0.0025545913 0.0027342057 -0.0027335752 0.0020962593 -0.0021134068 -0.0022646917 0.0028569808 0.002588761 -0.0023584117 -0.0028037138 -0.002708073 0.002220272 -0.0026248319 -0.002450252
boy -0.012290548 0.01196393 -0.012835706 0.012974994 0.01323089 0.012508177 0.013180147 0.012942811 0.013266682 -0.012102939 0.012645646 0.011843609 0.012290935 0.012707205 -0.011871243 -0.013119895 -0.012249844 0.012448653 -0.012833946 0.011613825 0.012244305 -0.0128975855 -0.012938191 0.012837075 -0.012497048 0.012300678 0.011644972 -0.012667413 -0.012654726 -0.013388453 -0.0119653065 -0.011949587 -0.013577862 -0.012149899 -0.013282304 0.012761301 0.011974766 0.013587005 -0.013334857 0.011554497 -0.013040973 -0.012239844 0.012778041 0.012278148 -0.012920491 -0.012343422 -0.01340654 0.013151613 -0.0128346095 -0.012266457
surprised -0.014035106 0.014883888 -0.01419558 0.014160587 0.014079427 0.014121457 0.014019955 0.013853691 0.014251661 -0.0139085995 0.01426568 0.014075708 0.013996763 0.013950013 -0.014254675 -0.014745167 -0.014403218 0.013772324 -0.014348965 0.0142821185 0.014045748 -0.01435538 -0.0138579495 0.014247138 -0.014145284 0.013988333 0.013873862 -0.014109919 -0.014230497 -0.014135567 -0.014091087 -0.014178904 -0.014331609 -0.014643877 -0.014305361 0.01403351 0.014291107 0.014737317 -0.01464231 0.014376443 -0.014410715 -0.01377154 0.014260017 0.014113588 -0.013660173 -0.013808036 -0.013956378 0.014551578 -0.013857418 -0.013807627
many -0.04641764 0.04764796 -0.046978507 0.04694267 0.04681263 0.046307698 0.046900403 0.046880186 0.04699313 -0.04644809 0.047227226 0.04683481 0.046853688 0.046872422 -0.045413047 -0.047448035 -0.04667507 0.046316627 -0.04624924 0.046995502 0.04645369 -0.0468926 -0.046085052 0.04632459 -0.046518594 0.046807993 0.04741853 -0.047218826 -0.04668964 -0.047539905 -0.046812996 -0.04604517 -0.046812225 -0.046025276 -0.046810206 0.045852475 0.046326928 0.04745075 -0.046153236 0.04670042 -0.047275662 -0.046654228 0.046748836 0.047130194 -0.047174532 -0.04694845 -0.046953786 0.04587412 -0.04647434 -0.0468357
wonderful -0.028746258 0.028813092 -0.029273976 0.028972559 0.028249549 0.029326875 0.029621923 0.029188877 0.029297365 -0.029183218 0.029564789 0.029601408 0.029329998 0.028507143 -0.029337965 -0.027867686 -0.02962586 0.02943998 -0.029272275 0.028900195 0.02875788 -0.029029073 -0.028941805 0.0287409 -0.02889431 0.02901652 0.02887778 -0.028421437 -0.029162377 -0.02942189 -0.029628737 -0.028767077 -0.028898222 -0.02885669 -0.029230166 0.028902313 0.029673006 0.028719446 -0.029315215 0.029473593 -0.029022735 -0.02923214 0.029382585 0.029232977 -0.029003588 -0.02885051 -0.029218847 0.029143654 -0.029630657 -0.029116502
colorful -0.015545004 0.015593597 -0.015468054 0.015458247 0.01590799 0.015294942 0.015906092 0.015614303 0.015772907 -0.01580454 0.015395229 0.015716549 0.015732795 0.015681358 -0.016022982 -0.015960118 -0.015417193 0.0155927185 -0.01580409 0.015991485 0.015633339 -0.01566489 -0.015633093 0.01607574 -0.015384952 0.015761519 0.01563702 -0.015475135 -0.015245878 -0.01565656 -0.015586132 -0.015612019 -0.015901888 -0.015600751 -0.01589283 0.015680384 0.016036652 0.016451342 -0.01592266 0.015669908 -0.015925178 -0.015273283 0.015647396 0.015504627 -0.015723588 -0.015872343 -0.015695175 0.01534642 -0.015288912 -0.015541724
cover -0.023042487 0.025386427 -0.02360782 0.024651388 0.025787387 0.024166742 0.024471803 0.025180062 0.023718845 -0.02381457 0.024229681 0.02485249 0.025035134 0.024380563 -0.023696601 -0.024545155 -0.024101192 0.02463585 -0.025098816 0.024155555 0.024095895 -0.024838746 -0.023863234 0.024131943 -0.02367664 0.023993626 0.022815172 -0.022793273 -0.024929868 -0.025510464 -0.025085444 -0.023565903 -0.023602964 -0.025767753 -0.024725825 0.02415225 0.024518952 0.024762798 -0.023172293 0.024481405 -0.023569185 -0.02396883 0.023909215 0.024522735 -0.023853254 -0.02464472 -0.023647802 0.023452565 -0.025310388 -0.025244765
already -0.027172549 0.027601961 -0.027700087 0.02654816 0.027298372 0.02690944 0.027083332 0.027263269 0.02754461 -0.026791068 0.02789188 0.027994478 0.027405405 0.028050775 -0.026874254 -0.027473973 -0.02757862 0.0284685 -0.027343558 0.027925193 0.026944248 -0.027347332 -0.026575927 0.027431844 -0.027496306 0.028148884 0.027558353 -0.026742578 -0.027889328 -0.027921071 -0.028015187 -0.027890762 -0.027963536 -0.02829379 -0.026780605 0.027488198 0.026959186 0.027874772 -0.02733756 0.026781013 -0.028157195 -0.028006684 0.02740409 0.02727038 -0.028144166 -0.027334182 -0.02762908 0.02766636 -0.026713874 -0.027861837
planning -0.012453158 0.012177492 -0.012021477 0.012403221 0.012302859 0.012392989 0.012170575 0.012695536 0.012555051 -0.012753623 0.012616006 0.012652855 0.012342438 0.0126781 -0.012336202 -0.012480867 -0.012878119 0.012353504 -0.012121265 0.012203988 0.012545551 -0.012401839 -0.012812142 0.012295257 -0.01260663 0.012250795 0.0121569885 -0.01223352 -0.012485573 -0.012166033 -0.012782831 -0.012734222 -0.012661396 -0.012508902 -0.012796736 0.012606513 0.01264165 0.012451036 -0.012581315 0.012068465 -0.0128758615 -0.012556712 0.012211331 0.012385893 -0.012344619 -0.012626148 -0.01264483 0.012053157 -0.012459729 -0.01271641
project -0.009321839 0.010121461 -0.0107230395 0.008714514 0.01012142 0.010416897 0.009829927 0.010751673 0.0102520725 -0.010167244 0.009847815 0.010385278 0.01020005 0.010539451 -0.009052233 -0.009281386 -0.009485539 0.010024298 -0.010184882 0.009981554 0.010671222 -0.011077452 -0.0104426965 0.008734996 -0.009380746 0.010390764 0.009784895 -0.00987066 -0.010672358 -0.009117038 -0.010137945 -0.008782954 -0.00925335 -0.010843387 -0.010431336 0.010572431 0.010370467 0.00832232 -0.010090734 0.010379355 -0.010741093 -0.009061746 0.009362763 0.009979806 -0.011038245 -0.010359448 -0.00966261 0.010380244 -0.010291915 -0.010408929
would -0.062305164 0.06273526 -0.06299132 0.061589256 0.06269386 0.06253379 0.062978655 0.06272667 0.063010044 -0.063289344 0.06320019 0.0632265 0.06294324 0.06360842 -0.06267541 -0.06352385 -0.06238379 0.06236646 -0.062132016 0.062334966 0.06303889 -0.063331164 -0.0630667 0.063432835 -0.062933594 0.061933953 0.06288185 -0.0634279 -0.0630695 -0.06320684 -0.06306651 -0.062546566 -0.06345961 -0.06309266 -0.06290163 0.062342796 0.0640664 0.064150296 -0.062679894 0.06275519 -0.06335709 -0.06301622 0.062390707 0.063159905 -0.062448204 -0.062721826 -0.061989497 0.06295576 -0.062645614 -0.063349806
awesome -0.01563615 0.013763532 -0.014414027 0.014555401 0.01578563 0.015195638 0.014952543 0.014391468 0.014879778 -0.015518615 0.015068467 0.014649286 0.014039911 0.015671525 -0.014782739 -0.015135667 -0.01535624 0.015776029 -0.013718512 0.01438906 0.014950413 -0.014677462 -0.014997586 0.014890414 -0.01473803 0.015511261 0.01581686 -0.014743919 -0.015304183 -0.0155761205 -0.015179627 -0.014822312 -0.015456786 -0.0153532475 -0.015341665 0.014775904 0.015347175 0.015892122 -0.015323226 0.015562684 -0.014477327 -0.015882175 0.013376998 0.015203931 -0.013896436 -0.015084429 -0.014038386 0.014468467 -0.014886249 -0.015436578
finished -0.02433465 0.023974776 -0.024235707 0.024396705 0.024264319 0.024389131 0.024824386 0.025077965 0.024947166 -0.024659978 0.024380097 0.024545671 0.02470385 0.024291962 -0.024364937 -0.02471122 -0.024350775 0.024438303 -0.024567444 0.024190893 0.024803175 -0.024843913 -0.0242288 0.024233853 -0.024847902 0.025001504 0.02469067 -0.025141714 -0.024929538 -0.024508215 -0.023473853 -0.024036897 -0.024702327 -0.024163764 -0.023972264 0.024515787 0.024841899 0.023603356 -0.025028002 0.02482057 -0.024838168 -0.024902957 0.02487462 0.024625562 -0.02416943 -0.023847839 -0.025037631 0.024397496 -0.024338609 -0.024220306
work -0.048859045 0.04986198 -0.04805522 0.04791468 0.047710776 0.048719328 0.048736878 0.04842896 0.048806157 -0.04896311 0.048506305 0.0491505 0.04861412 0.04840279 -0.04843683 -0.048410468 -0.04888545 0.0487627 -0.04829761 0.04838371 0.04851247 -0.04875916 -0.0488512 0.048697393 -0.048775498 0.048499312 0.049141075 -0.048444416 -0.048988037 -0.048680507 -0.047726978 -0.04852786 -0.04791189 -0.048670795 -0.048528444 0.048170168 0.04798696 0.048853956 -0.047869332 0.04804614 -0.04914273 -0.04841614 0.047719933 0.04802161 -0.04856718 -0.048638072 -0.048896637 0.048517734 -0.048032086 -0.047978085
wish -0.025232185 0.024530757 -0.025616303 0.026086513 0.026469944 0.025797466 0.026062205 0.025785796 0.025177304 -0.024637109 0.02540222 0.02432594 0.02549514 0.025820069 -0.024799991 -0.025190115 -0.02471495 0.02588343 -0.025291162 0.02436544 0.024526503 -0.025538893 -0.025491528 0.025583528 -0.026147477 0.025099719 0.02472495 -0.026128741 -0.025107797 -0.026850877 -0.024434548 -0.024744859 -0.02527741 -0.02577796 -0.025246501 0.025496533 0.025641842 0.02451038 -0.025361408 0.025431111 -0.026107576 -0.024970317 0.024660878 0.025038818 -0.02507079 -0.025937121 -0.024520896 0.02525099 -0.025654295 -0.025838587
every -0.035686094 0.034633208 -0.03433098 0.035859827 0.03588462 0.034946397 0.0359147 0.0356851 0.035076104 -0.035541777 0.03649069 0.033979997 0.035580885 0.03569876 -0.03545015 -0.035229854 -0.035358712 0.03619709 -0.036121555 0.0352548 0.033685528 -0.036014333 -0.03549058 0.036039375 -0.035465147 0.035687927 0.035664868 -0.03576361 -0.035498347 -0.035403702 -0.035787884 -0.034804963 -0.03531321 -0.035228197 -0.035740457 0.034851994 0.03538777 0.032120477 -0.03549479 0.035239287 -0.03438143 -0.034424335 0.035562247 0.03557981 -0.034844045 -0.035822395 -0.035594013 0.035744194 -0.036182508 -0.03603488
human -0.015802419 0.015557847 -0.015901467 0.016017195 0.015851106 0.015594412 0.015469895 0.015786238 0.01606949 -0.0160675 0.015372076 0.015918763 0.015457277 0.015771022 -0.0153673 -0.01567367 -0.01607278 0.015689848 -0.015984738 0.01582743 0.015536958 -0.016108122 -0.015442698 0.015659861 -0.015456706 0.015503233 0.015520425 -0.0155379735 -0.016109908 -0.015484802 -0.015851261 -0.015989967 -0.015572954 -0.015412356 -0.015762608 0.015961062 0.0155436555 0.014990711 -0.015921822 0.015857767 -0.015790679 -0.015575608 0.015891962 0.015923042 -0.015504972 -0.015277307 -0.016077064 0.015259247 -0.015357256 -0.015563049
pastor -0.011484771 0.011812706 -0.012320479 0.012237131 0.011448768 0.01160195 0.011965886 0.011588242 0.012063468 -0.011716037 0.01141893 0.012307306 0.011998533 0.012082899 -0.01112993 -0.011264444 -0.011153307 0.011751905 -0.012321848 0.011715734 0.012514087 -0.012252135 -0.01161509 0.0122143 -0.012048472 0.011860563 0.011726824 -0.011550533 -0.011461394 -0.011145287 -0.011968313 -0.011674663 -0.012184127 -0.011170018 -0.011749125 0.011578023 0.011583687 0.011965394 -0.011324281 0.0116894785 -0.011893663 -0.012381178 0.011990058 0.011663894 -0.0123071335 -0.011689067 -0.0111756865 0.011783039 -0.011932778 -0.011844518
give -0.02890817 0.02829359 -0.030257275 0.029344633 0.0285561 0.029285187 0.029869787 0.028787114 0.029953917 -0.02875239 0.028981838 0.030089011 0.02932029 0.028186468 -0.029667232 -0.029859541 -0.029951978 0.029580733 -0.029709384 0.029044254 0.028023105 -0.029123284 -0.028883278 0.029293044 -0.030290354 0.029332813 0.029519623 -0.029050216 -0.02873196 -0.029378762 -0.029436318 -0.029416459 -0.030348605 -0.028373603 -0.029410468 0.029124582 0.029481675 0.031047253 -0.029322019 0.02920493 -0.028868662 -0.02880613 0.02893655 0.02961713 -0.029370667 -0.029191151 -0.029012354 0.029119506 -0.029510923 -0.02939668
copy -0.018625593 0.017306913 -0.01698174 0.017514529 0.01854031 0.017871523 0.018586023 0.018420579 0.01708154 -0.017924754 0.018294165 0.01868263 0.018913541 0.018261753 -0.017234303 -0.018967833 -0.017273799 0.018431557 -0.01776041 0.01783023 0.017817013 -0.017860278 -0.018462114 0.018518465 -0.01905282 0.016869623 0.016868653 -0.017301416 -0.018533755 -0.017365586 -0.018627612 -0.018674657 -0.017989391 -0.017087461 -0.018341918 0.018479722 0.017378638 0.017469734 -0.018742159 0.017377926 -0.01738749 -0.018106263 0.017568002 0.01728812 -0.018446308 -0.018559508 -0.017974958 0.01753892 -0.018519081 -0.018705463
everyone -0.019637046 0.020103486 -0.018981904 0.019136816 0.019519651 0.020426067 0.019257316 0.020074163 0.020163396 -0.019850314 0.020450503 0.018790023 0.020049049 0.019145418 -0.019083101 -0.01995973 -0.018950185 0.019834694 -0.01987007 0.019876614 0.020549327 -0.020178849 -0.020011708 0.02005592 -0.019861976 0.019234864 0.019160118 -0.019627383 -0.019409584 -0.020312984 -0.020201933 -0.019071108 -0.020275379 -0.019343331 -0.019534618 0.018745111 0.01966437 0.020593027 -0.019599788 0.020244906 -0.019592166 -0.018887524 0.019834569 0.02025918 -0.019846957 -0.019754052 -0.018871775 0.019579986 -0.019655967 -0.020203235
know -0.044702653 0.044343654 -0.044616234 0.044432115 0.044430327 0.044462882 0.044800844 0.045123283 0.044216238 -0.04371553 0.044607498 0.044470273 0.045514546 0.043789525 -0.044625226 -0.044974416 -0.04567927 0.04412656 -0.044643153 0.045451522 0.043933406 -0.04501212 -0.045377642 0.044930495 -0.044918563 0.044248614 0.04502175 -0.04540145 -0.04403543 -0.044488683 -0.04403275 -0.043399476 -0.043170646 -0.044423494 -0.045438677 0.044562574 0.04485897 0.043188304 -0.044774625 0.043835137 -0.04427067 -0.044316117 0.044689912 0.044313382 -0.044695597 -0.04501303 -0.044179477 0.04458456 -0.045149956 -0.043972433
always -0.024411937 0.024134995 -0.024498394 0.024014164 0.023729585 0.023578232 0.023687433 0.023845438 0.023946019 -0.024096755 0.024190884 0.024351766 0.024081053 0.024263643 -0.023856878 -0.023838464 -0.024130968 0.02427283 -0.024083294 0.023731057 0.024265984 -0.023637218 -0.023966292 0.023967408 -0.02358984 0.023730503 0.024256796 -0.023838887 -0.023795644 -0.024173995 -0.02410718 -0.024487497 -0.02426502 -0.023759576 -0.023887558 0.023799928 0.023825673 0.024399398 -0.024197388 0.023593137 -0.023591377 -0.023595072 0.023512367 0.024359815 -0.023868978 -0.024165355 -0.023711339 0.02426643 -0.02393065 -0.023766553
enjoy -0.03390948 0.03416309 -0.033241663 0.03351151 0.033664335 0.033510163 0.033918098 0.033751935 0.033310156 -0.033837393 0.03401484 0.033158127 0.03365877 0.033225838 -0.03376082 -0.033233386 -0.03264197 0.033173174 -0.03314515 0.03345043 0.03309759 -0.03349425 -0.033251584 0.033151463 -0.033812877 0.033354998 0.033859603 -0.033730976 -0.033212963 -0.033868738 -0.033907473 -0.03386099 -0.033866193 -0.03339754 -0.033895392 0.033419624 0.0340422 0.034194645 -0.03368372 0.033438895 -0.033744723 -0.033714015 0.033116814 0.033444546 -0.033417203 -0.033334002 -0.03255054 0.033440735 -0.033575375 -0.033831652
books -0.058499746 0.05918515 -0.05772764 0.057859406 0.05835522 0.05833554 0.058210276 0.058412187 0.058684867 -0.057905953 0.05707109 0.058183108 0.05874432 0.058948778 -0.058582973 -0.05880698 -0.05780346 0.05852812 -0.058051135 0.058460183 0.058230255 -0.05878609 -0.058635924 0.058133986 -0.057997137 0.05798334 0.058263127 -0.05822672 -0.058715552 -0.058929417 -0.058186382 -0.058203034 -0.05709406 -0.057999432 -0.057637338 0.058170635 0.057671998 0.057901934 -0.058582157 0.058324676 -0.059574034 -0.058750242 0.05774476 0.058451578 -0.05883855 -0.058136873 -0.057430897 0.058660105 -0.05882073 -0.05813408
genesis -0.011376209 0.011989004 -0.011374526 0.0117262425 0.011636645 0.011711992 0.01172536 0.011678947 0.011755899 -0.011383936 0.011907769 0.012026964 0.0116927335 0.011583286 -0.011755141 -0.011966718 -0.011519523 0.011203032 -0.011950198 0.011411634 0.011353862 -0.011791517 -0.011193311 0.011941389 -0.011565439 0.011436666 0.011444448 -0.011907781 -0.0113893915 -0.011380363 -0.011928031 -0.011444849 -0.011472348 -0.011326575 -0.011914877 0.011468758 0.011593755 0.01207572 -0.011755747 0.011685825 -0.011443327 -0.011285555 0.011240955 0.011918997 -0.011582475 -0.011806855 -0.011278985 0.011830923 -0.0113031035 -0.01123997
spin -0.0125807375 0.012582026 -0.012359881 0.011656846 0.012414243 0.012774851 0.011693448 0.012611362 0.012539083 -0.011624169 0.012255396 0.012275888 0.0127605 0.012825288 -0.0122252945 -0.01269758 -0.012086805 0.012818055 -0.012301305 0.012768522 0.011746734 -0.012019189 -0.012763731 0.012273054 -0.012458187 0.012807961 0.012223691 -0.012622123 -0.012605593 -0.012796429 -0.012474898 -0.012339121 -0.011930244 -0.012820006 -0.011969964 0.012204397 0.0117652975 0.012274273 -0.01198993 0.012028182 -0.012263796 -0.012756214 0.012578146 0.012627252 -0.012100069 -0.012110397 -0.012379078 0.012666669 -0.012101764 -0.012459188
line -0.026146872 0.027087942 -0.025875421 0.026607793 0.025839206 0.02612079 0.025555406 0.026717847 0.026797896 -0.026787486 0.027155362 0.026424952 0.02675867 0.025538769 -0.027172932 -0.026604867 -0.026378674 0.025654878 -0.02582925 0.026687475 0.027165085 -0.026380755 -0.026094118 0.026650807 -0.02644564 0.02588596 0.02686466 -0.026877368 -0.02547043 -0.026444606 -0.026319519 -0.027163342 -0.02649489 -0.026486635 -0.026746942 0.02645364 0.026573315 0.02747961 -0.02608547 0.025125952 -0.026087018 -0.027195407 0.027357599 0.026710058 -0.025687667 -0.025916863 -0.025615616 0.026521714 -0.025694331 -0.026668912
developed -0.025813723 0.025104461 -0.026244441 0.02621558 0.026092488 0.025689552 0.0257772 0.025963299 0.025229681 -0.025484435 0.026361454 0.026134016 0.026008448 0.025791887 -0.025177425 -0.025281433 -0.026382813 0.025427036 -0.026847238 0.025928304 0.026218913 -0.024510864 -0.026432222 0.025638811 -0.02575608 0.025631981 0.02479638 -0.02546273 -0.025545167 -0.025658451 -0.025791828 -0.02590635 -0.026668485 -0.026769115 -0.025026537 0.026032507 0.025735494 0.02437977 -0.026652003 0.026267853 -0.025644662 -0.02603012 0.025513183 0.025813166 -0.026226556 -0.02645315 -0.026048835 0.02593782 -0.025911368 -0.025171358
friends -0.019311976 0.019113561 -0.01914465 0.019397317 0.019437185 0.019005993 0.019739943 0.019474313 0.019377226 -0.01950084 0.019064328 0.018989801 0.018688675 0.019281542 -0.019014701 -0.01988341 -0.019134292 0.019815436 -0.019346373 0.018836847 0.018954791 -0.018953374 -0.019358126 0.019857787 -0.019297153 0.018994242 0.019654647 -0.018736476 -0.018716743 -0.019493865 -0.01922717 -0.019554727 -0.019498862 -0.01886468 -0.019352626 0.019596059 0.018840127 0.02021956 -0.0194274 0.019603472 -0.01853172 -0.019563884 0.019243898 0.020082425 -0.019786226 -0.019101037 -0.018584244 0.019487834 -0.018760238 -0.019153912
list -0.014170198 0.014183403 -0.01362381 0.013735073 0.014625752 0.013977846 0.013603391 0.014390109 0.014366243 -0.014693245 0.013943154 0.014066615 0.014637967 0.013697343 -0.01341022 -0.01388158 -0.014037983 0.01439488 -0.014508719 0.013994967 0.014573472 -0.014682405 -0.014077272 0.013656086 -0.014442161 0.013844495 0.0148241 -0.013761742 -0.014114627 -0.013969739 -0.013954329 -0.014174484 -0.0144639835 -0.0138532985 -0.013967913 0.01420203 0.013993934 0.014362694 -0.013806496 0.014517973 -0.014250788 -0.014520066 0.014408927 0.013616928 -0.014282865 -0.014234156 -0.014355452 0.014223855 -0.014282106 -0.01400246
oh -0.015338958 0.015080372 -0.015599533 0.015459927 0.015416742 0.014941818 0.014969612 0.015296153 0.014865099 -0.016144281 0.016082974 0.015454354 0.014972442 0.015591481 -0.01600841 -0.015427213 -0.015904767 0.015963685 -0.015690058 0.015089622 0.015304587 -0.01550069 -0.015568666 0.014960458 -0.016248815 0.014874519 0.01569345 -0.016222145 -0.01528522 -0.015988942 -0.016064648 -0.01500874 -0.01494609 -0.015163205 -0.015002801 0.015699552 0.015200466 0.015767528 -0.016231226 0.015922444 -0.015058572 -0.014919947 0.015385291 0.015279719 -0.014911316 -0.015606176 -0.015922157 0.01579496 -0.0155772045 -0.0153835025
let -0.029802397 0.029404942 -0.028787874 0.029042115 0.028516714 0.029159999 0.029661944 0.029185884 0.029018577 -0.029276839 0.028999763 0.029058067 0.029977227 0.028778812 -0.029322179 -0.029001884 -0.028965943 0.029662851 -0.02940748 0.029581042 0.029713864 -0.028976178 -0.029286768 0.028601399 -0.029990511 0.029393658 0.030311557 -0.028482871 -0.02936554 -0.030004736 -0.028646078 -0.028820097 -0.02939987 -0.029514471 -0.029813312 0.029142432 0.029949658 0.028093427 -0.02924486 0.028597577 -0.029511377 -0.030042753 0.028983599 0.029049108 -0.02914457 -0.029512465 -0.028704796 0.028588397 -0.029474927 -0.029149244
truly -0.017503733 0.01717834 -0.0177363 0.01783635 0.017655239 0.017845182 0.017704375 0.017642478 0.01760852 -0.017605916 0.018419957 0.017254889 0.017783847 0.01728047 -0.018058643 -0.017196966 -0.017463282 0.017482309 -0.01785268 0.01799704 0.018052738 -0.018195076 -0.018247126 0.017961401 -0.01802793 0.01787112 0.018012904 -0.017227031 -0.018164886 -0.01758123 -0.017821318 -0.018083975 -0.017759698 -0.017766688 -0.018252948 0.0181127 0.016896237 0.017449347 -0.017048957 0.016893068 -0.016897934 -0.017857587 0.017862173 0.017852806 -0.018250005 -0.017944412 -0.01747605 0.017805105 -0.01788823 -0.018470572
happened -0.01571491 0.015512254 -0.01581018 0.015306499 0.015816627 0.01620626 0.015310459 0.015724398 0.015390934 -0.0151322745 0.014945874 0.015659623 0.015055631 0.0153586315 -0.015819719 -0.01606022 -0.015181136 0.01566681 -0.015981825 0.015395413 0.015593595 -0.0149024045 -0.015584641 0.016049422 -0.015745694 0.015531752 0.0151137095 -0.015675696 -0.01523704 -0.015284741 -0.01560302 -0.015972236 -0.015744992 -0.015360765 -0.015081513 0.015281674 0.015302212 0.016426811 -0.01560175 0.015143315 -0.015978476 -0.016193971 0.0151848355 0.015867759 -0.014784499 -0.0151787205 -0.015261853 0.015931405 -0.01583508 -0.015171724
day -0.028475264 0.028838847 -0.028323747 0.028620228 0.028704207 0.028858189 0.028867368 0.028528959 0.0288289 -0.028099366 0.02759047 0.028115371 0.028218085 0.028619425 -0.02795775 -0.029422313 -0.02819979 0.028120842 -0.029346796 0.027802803 0.029380875 -0.028578183 -0.027980246 0.028967522 -0.028792901 0.028555788 0.028904255 -0.027700555 -0.028020255 -0.028126039 -0.028309215 -0.027533628 -0.028627625 -0.02812807 -0.028887235 0.028189516 0.028710632 0.02786724 -0.027978374 0.028198263 -0.028060447 -0.028685598 0.028258303 0.028396847 -0.02898392 -0.028282575 -0.02861237 0.02822793 -0.028526442 -0.028803281
good -0.06834537 0.0677628 -0.068790756 0.068555735 0.06829438 0.06874913 0.06835095 0.06886399 0.06864424 -0.06830509 0.06874518 0.06868996 0.068730004 0.06891293 -0.06867998 -0.067176044 -0.06818178 0.068096906 -0.06838287 0.068770014 0.06854297 -0.06844616 -0.06806314 0.06874935 -0.068716444 0.068471916 0.06818922 -0.068886094 -0.0681772 -0.06817687 -0.06915736 -0.06839858 -0.068888195 -0.0685698 -0.06810922 0.06750543 0.069145314 0.06660889 -0.06726471 0.06771594 -0.06861443 -0.06861865 0.06765763 0.06804398 -0.06837665 -0.06859415 -0.06837734 0.06881554 -0.067577116 -0.06813061
believable -0.00970245 0.009037607 -0.008002361 0.009214545 0.009244458 0.0091891 0.009191648 0.009739975 0.00931748 -0.009022898 0.009283995 0.008044999 0.009434996 0.009654086 -0.00980489 -0.009476237 -0.007980794 0.009250175 -0.009305456 0.009441873 0.009973518 -0.00986014 -0.00932993 0.009831956 -0.008277728 0.009241282 0.009448205 -0.009200457 -0.00934715 -0.0089841215 -0.009498486 -0.007995841 -0.00939225 -0.008361959 -0.0077394685 0.0091922665 0.009640567 0.010041092 -0.009272443 0.0077568176 -0.008921243 -0.009600987 0.007822858 0.00953792 -0.009563232 -0.008969746 -0.009199164 0.009649214 -0.00911552 -0.009277246
someone -0.025395364 0.025557445 -0.024949783 0.02526325 0.02491616 0.02525304 0.025137663 0.024810707 0.024652535 -0.024836829 0.025604086 0.025276689 0.025447145 0.024974307 -0.025507422 -0.025135849 -0.02502064 0.025250237 -0.025745817 0.025341608 0.025445705 -0.024865022 -0.025112491 0.025374224 -0.024779793 0.025030388 0.0248382 -0.025267111 -0.024819214 -0.02525665 -0.025014881 -0.02529686 -0.024970576 -0.025390115 -0.025491895 0.025448224 0.02493764 0.025648411 -0.024925135 0.025182886 -0.024566967 -0.025197336 0.025458327 0.024898628 -0.025517946 -0.02506133 -0.02516111 0.025401723 -0.024684552 -0.025444284
keep -0.026064137 0.026878431 -0.026207173 0.026083086 0.026239239 0.026655262 0.026422022 0.026489403 0.02669501 -0.026143724 0.02651997 0.026162328 0.02657039 0.026012963 -0.026341042 -0.026792238 -0.025881253 0.02609694 -0.0264285 0.026315045 0.027565591 -0.02636352 -0.02631536 0.026480896 -0.026028687 0.026835967 0.026379114 -0.025575906 -0.026813297 -0.026124315 -0.026206061 -0.026895035 -0.025988009 -0.026604678 -0.02649079 0.026163192 0.025932804 0.027932595 -0.026317772 0.026966836 -0.02620559 -0.026083054 0.026586652 0.026869746 -0.026329111 -0.026565654 -0.025871342 0.026099334 -0.02680953 -0.026757384
guessing -0.014704873 0.014939786 -0.014790032 0.014482606 0.014329213 0.014339119 0.014602914 0.014351381 0.014138307 -0.014757833 0.014582631 0.014949167 0.014801841 0.014633744 -0.014473494 -0.014745139 -0.014420056 0.014452819 -0.014975673 0.014483538 0.01454672 -0.014361821 -0.014537811 0.01463997 -0.0149430595 0.014862068 0.014343533 -0.0145229325 -0.014204702 -0.0148541285 -0.014393732 -0.015066811 -0.014921767 -0.014747383 -0.014525925 0.014282841 0.015076636 0.014978432 -0.014582664 0.015049747 -0.014919111 -0.014804135 0.014645616 0.0144458385 -0.014170407 -0.014507594 -0.014500112 0.014234029 -0.014453842 -0.014491683
way -0.049692743 0.05030228 -0.05044027 0.049528696 0.049733825 0.04977106 0.050556555 0.05061603 0.050065286 -0.05025577 0.05034193 0.049579907 0.050267804 0.05005246 -0.04953084 -0.0498814 -0.049799792 0.049521714 -0.05070964 0.049360767 0.0494271 -0.05012033 -0.049973607 0.050109778 -0.04971492 0.049519736 0.049845356 -0.049906608 -0.050478917 -0.049693614 -0.04927696 -0.049981244 -0.050120454 -0.049832612 -0.050429996 0.04938817 0.04997937 0.049846906 -0.050188318 0.048903864 -0.04958586 -0.04997705 0.050440393 0.05090953 -0.050295822 -0.050204836 -0.05092771 0.049434114 -0.050104335 -0.04925309
quick -0.028430395 0.027729137 -0.027890379 0.027474884 0.027729735 0.027604546 0.027725527 0.027845602 0.02807621 -0.027992696 0.027779061 0.028394775 0.027396891 0.027805451 -0.028181799 -0.028124934 -0.028607238 0.027757281 -0.02794273 0.02830629 0.028682847 -0.027890505 -0.0271992 0.027918994 -0.027882015 0.027676124 0.02788529 -0.028271489 -0.028368028 -0.028044272 -0.027755456 -0.027580798 -0.028076407 -0.028058873 -0.028338438 0.028224206 0.02771374 0.02752466 -0.028079426 0.028161095 -0.027297309 -0.027794337 0.028555099 0.028085448 -0.028149353 -0.02796597 -0.02785479 0.027838007 -0.028197901 -0.02778867
made -0.037731405 0.03853574 -0.03883124 0.038781516 0.038617548 0.0385953 0.03878959 0.038548574 0.03846441 -0.03850914 0.039021984 0.038664278 0.037934065 0.03756099 -0.038249746 -0.039324075 -0.03863591 0.03848247 -0.038216177 0.038733594 0.03855612 -0.037535377 -0.038190894 0.038236834 -0.038867947 0.03825928 0.038701765 -0.03870231 -0.038550373 -0.03888912 -0.038121544 -0.03872325 -0.0386229 -0.038514428 -0.03912486 0.03838521 0.038824636 0.03819094 -0.03829945 0.038050905 -0.038986485 -0.038105372 0.038358677 0.03854319 -0.03869443 -0.038641285 -0.038432874 0.0385497 -0.038249005 -0.038319856
think -0.04027087 0.040352706 -0.040708642 0.041339487 0.040314883 0.04065599 0.0401344 0.041081056 0.040119067 -0.03952954 0.040701214 0.040748548 0.04089941 0.04117735 -0.03971691 -0.040758118 -0.0408133 0.040423386 -0.040763907 0.03975771 0.039833654 -0.03870199 -0.04004944 0.040783755 -0.040297754 0.03942547 0.040679313 -0.038477067 -0.039759003 -0.040241178 -0.041295707 -0.040251024 -0.0397603 -0.040859547 -0.040778477 0.04098999 0.04006658 0.03925666 -0.040677104 0.03989306 -0.04010549 -0.04042244 0.039530527 0.039311398 -0.040784936 -0.040531173 -0.040043753 0.04005601 -0.039874367 -0.040104996
reality -0.017858997 0.01800044 -0.017335117 0.017320797 0.01791253 0.017772939 0.016389957 0.017112482 0.016381491 -0.01691362 0.017313553 0.016666988 0.017743044 0.016419208 -0.017229382 -0.01733915 -0.017291678 0.017145405 -0.016775317 0.017167475 0.017950138 -0.016919594 -0.01703686 0.017422386 -0.016988488 0.01712671 0.016994 -0.017877365 -0.017155536 -0.017427897 -0.017137596 -0.01787063 -0.017540596 -0.016906014 -0.017418565 0.017416462 0.01748225 0.017098933 -0.017744236 0.017026449 -0.017048113 -0.017139751 0.017654058 0.016526526 -0.016693672 -0.016613254 -0.01721221 0.01688207 -0.01710402 -0.016829334
tell -0.016372394 0.01708574 -0.01689824 0.016172359 0.016588029 0.016870644 0.016786698 0.016254365 0.016812047 -0.01662274 0.0165292 0.01628325 0.016972143 0.01665039 -0.016289493 -0.017045775 -0.016239747 0.01618134 -0.016794372 0.016268991 0.016956113 -0.016315192 -0.016620167 0.016655875 -0.017108425 0.016646512 0.016833853 -0.016579457 -0.016441705 -0.016238583 -0.016726537 -0.016879776 -0.016929766 -0.016436156 -0.016507208 0.01647351 0.016257796 0.016483868 -0.016962636 0.017052127 -0.016512306 -0.016833525 0.016742047 0.017123047 -0.01675048 -0.016571715 -0.016870283 0.016732307 -0.016516611 -0.016638145
people -0.04301187 0.043225773 -0.042620465 0.04355729 0.04226675 0.04324123 0.043058906 0.041765604 0.042812463 -0.043498598 0.04296241 0.042928595 0.043312497 0.043350894 -0.043152813 -0.043271508 -0.043575253 0.043609165 -0.04231098 0.04370771 0.042901553 -0.043152697 -0.04312232 0.043349873 -0.04319447 0.043523036 0.04377497 -0.04312793 -0.043671463 -0.04286296 -0.043191217 -0.043416053 -0.042728294 -0.04355866 -0.043024287 0.043355476 0.042124033 0.042753227 -0.04296649 0.04261135 -0.043281287 -0.043658644 0.043068986 0.042318415 -0.043179207 -0.042901155 -0.042681616 0.042765647 -0.042629708 -0.04328993
explains -0.012023947 0.011523556 -0.012249255 0.011462896 0.011770178 0.011719853 0.011855924 0.012388839 0.011891958 -0.0115414765 0.011724453 0.011668249 0.012362893 0.011588266 -0.01217198 -0.01129242 -0.0118727535 0.012241751 -0.012407844 0.011163172 0.012208605 -0.011344747 -0.011927667 0.0114366 -0.011922074 0.011837183 0.01197936 -0.011262004 -0.011696673 -0.011525408 -0.011596948 -0.012274646 -0.012162532 -0.011372014 -0.011885607 0.01168139 0.011696227 0.012017507 -0.0119055705 0.011360229 -0.011733007 -0.011600177 0.011335118 0.012146357 -0.012100277 -0.012351451 -0.01166748 0.011366026 -0.01126478 -0.011137982
stop -0.018812915 0.01775455 -0.01813182 0.01923635 0.0186828 0.019406183 0.019385586 0.018757608 0.01894777 -0.01881306 0.01876229 0.019295815 0.018796636 0.019060446 -0.018748827 -0.019367145 -0.018599657 0.019350288 -0.018662274 0.01850906 0.01867993 -0.01923783 -0.018755209 0.01800276 -0.018518057 0.018913075 0.018524986 -0.019227397 -0.018972743 -0.01902016 -0.0195049 -0.019685993 -0.01857405 -0.01876694 -0.018216759 0.018705852 0.018846015 0.01845017 -0.019487603 0.018263526 -0.019017719 -0.01907776 0.019250907 0.018925982 -0.01931824 -0.019225642 -0.019149251 0.019333856 -0.018587207 -0.01954722
mystery -0.02205384 0.023111219 -0.022265285 0.02212184 0.02344968 0.022861805 0.022691462 0.022673745 0.022535907 -0.021797324 0.023178132 0.022845102 0.023050632 0.02327728 -0.02327899 -0.022752408 -0.023234844 0.022366632 -0.023081983 0.023474941 0.021909676 -0.02206434 -0.022468517 0.022157768 -0.022594662 0.02240514 0.023182165 -0.022976726 -0.022870788 -0.02199612 -0.022896223 -0.023114152 -0.022287298 -0.022620644 -0.02221613 0.022546083 0.022357019 0.022486962 -0.022989435 0.022615861 -0.0227595 -0.021835295 0.022841485 0.022852996 -0.022382503 -0.022912037 -0.022531407 0.022057 -0.02200286 -0.022556039
little -0.046067245 0.046848014 -0.046066895 0.04654414 0.046715695 0.04604588 0.04580022 0.046464566 0.045595795 -0.04483613 0.045319594 0.04599954 0.04659536 0.04562054 -0.046134647 -0.04613891 -0.04636259 0.04678888 -0.047516663 0.046667032 0.046117976 -0.045827907 -0.046018515 0.046667088 -0.046410915 0.04642794 0.04571825 -0.046410993 -0.046562243 -0.046292365 -0.046244826 -0.044903666 -0.046297062 -0.04678611 -0.04574569 0.046404257 0.046206053 0.043766033 -0.04663091 0.04646365 -0.04627768 -0.04576824 0.04556693 0.047492508 -0.04660186 -0.04587316 -0.0473763 0.04647237 -0.04624902 -0.046014335
romance -0.01833426 0.018293964 -0.018793756 0.018849013 0.019209277 0.017942375 0.01886542 0.018893676 0.018591652 -0.017579155 0.017643318 0.01748535 0.018285077 0.017317368 -0.01922546 -0.018497774 -0.018328495 0.0182329 -0.018369978 0.017737828 0.01904364 -0.01841239 -0.01787259 0.017546684 -0.01887181 0.018476008 0.018146941 -0.01762019 -0.017653964 -0.019360961 -0.018819414 -0.019188436 -0.01899909 -0.01863822 -0.01890141 0.019020531 0.018397383 0.016962238 -0.018262923 0.018712727 -0.01781628 -0.01822039 0.017797617 0.018548451 -0.018607806 -0.018793117 -0.018227568 0.018394746 -0.018757343 -0.018666318
thus -0.013326061 0.012936011 -0.0134150665 0.012290832 0.014088081 0.012737867 0.013196263 0.012631683 0.012495586 -0.01326565 0.013220099 0.012915606 0.0130634345 0.0128129255 -0.012661571 -0.013441769 -0.013599988 0.0128872115 -0.012968272 0.013553016 0.012682469 -0.012960108 -0.013372475 0.012431649 -0.013501245 0.013098575 0.013061403 -0.012758188 -0.012998305 -0.01320041 -0.01295188 -0.013222566 -0.01327224 -0.012590207 -0.013927389 0.013149284 0.0128412135 0.014332989 -0.013099766 0.013406063 -0.013932627 -0.013532071 0.013537527 0.013687618 -0.013439418 -0.0138551565 -0.013382437 0.01325044 -0.013619933 -0.013413293
hockey -0.011745343 0.011496935 -0.011485357 0.011268143 0.011616575 0.011636345 0.0114802625 0.011746415 0.011204171 -0.011391244 0.011258681 0.011951222 0.011303 0.011572999 -0.011750687 -0.011832301 -0.011519091 0.011315313 -0.011858725 0.0114725325 0.011843646 -0.011053949 -0.011113908 0.011581465 -0.011689256 0.011421878 0.011452562 -0.01136125 -0.01135928 -0.011505334 -0.010954719 -0.011548756 -0.011313434 -0.011165339 -0.011105098 0.011027868 0.011538295 0.0116761755 -0.011311539 0.0114013385 -0.011722095 -0.011428759 0.011063987 0.011689553 -0.011711331 -0.011655982 -0.011612391 0.011739991 -0.011719326 -0.011550408
funny -0.018184606 0.018238977 -0.018424299 0.017816965 0.018010916 0.017835634 0.017594334 0.018113442 0.017378587 -0.017983818 0.018523768 0.01802949 0.018258285 0.017996248 -0.018347254 -0.0187546 -0.018363051 0.01823951 -0.018062977 0.018521002 0.018469295 -0.018040445 -0.018320268 0.018325211 -0.017683923 0.01805194 0.018301466 -0.018227754 -0.01872853 -0.01828546 -0.017948063 -0.018181669 -0.01806182 -0.01854327 -0.018591762 0.018684074 0.017861139 0.018229395 -0.01779973 0.018045178 -0.018748991 -0.018684588 0.018394886 0.017711092 -0.01826969 -0.01788807 -0.018547105 0.018540218 -0.01839389 -0.017701823
women -0.014356526 0.013559614 -0.015486313 0.015538943 0.015821652 0.01414418 0.013989199 0.013398947 0.014976388 -0.013709134 0.015031282 0.015189703 0.014406175 0.015038706 -0.015932063 -0.014000078 -0.016060038 0.01592601 -0.01374102 0.014568313 0.015408197 -0.013777736 -0.014601689 0.015216077 -0.013779808 0.0148869585 0.015542035 -0.01341251 -0.01527875 -0.014818939 -0.014915294 -0.014673635 -0.014958152 -0.01526185 -0.015638646 0.015041219 0.015204079 0.015588142 -0.015150671 0.014087542 -0.0148829855 -0.015811045 0.0146316765 0.014992146 -0.014842335 -0.0146664865 -0.015470491 0.014743976 -0.014374234 -0.014820676
gave -0.018190335 0.019351939 -0.017895289 0.018524535 0.018322742 0.018735558 0.018291766 0.01983787 0.017435677 -0.017304502 0.018189413 0.018229613 0.017965626 0.01849234 -0.018783472 -0.017612496 -0.018376091 0.018282475 -0.018238043 0.01794186 0.018906107 -0.019541962 -0.018671108 0.01962841 -0.017779175 0.018158931 0.018195538 -0.018533979 -0.019606322 -0.019573605 -0.018087843 -0.017588364 -0.01842106 -0.018876716 -0.018877951 0.01826516 0.018612579 0.018005846 -0.019153912 0.018651256 -0.018106455 -0.018102093 0.019456606 0.017295957 -0.018361675 -0.018779464 -0.019304214 0.018140912 -0.019964822 -0.01784155
away -0.022450056 0.02208189 -0.021981107 0.022727052 0.022248594 0.022531966 0.022916012 0.022932693 0.022611141 -0.022366943 0.021994188 0.02292897 0.022707595 0.022801705 -0.022855384 -0.022615725 -0.02329052 0.023164513 -0.022796342 0.022531247 0.022298902 -0.022010531 -0.022903576 0.022827813 -0.023101639 0.022786073 0.022933798 -0.022951951 -0.023174264 -0.022416832 -0.023142453 -0.02155171 -0.022716234 -0.023164177 -0.02284719 0.023087678 0.023477811 0.023949606 -0.02302037 0.022308962 -0.021574823 -0.02329965 0.021440793 0.023340296 -0.022414228 -0.022194458 -0.023574244 0.022657465 -0.023176782 -0.022547761
needed -0.026495032 0.026513232 -0.02691071 0.026792463 0.026227705 0.026366984 0.026381703 0.026557395 0.026157552 -0.026364788 0.02680795 0.026078384 0.026280904 0.026348505 -0.025952544 -0.026189605 -0.026543513 0.026780337 -0.026777325 0.026376504 0.027100306 -0.026735192 -0.026563019 0.025813913 -0.026945591 0.026294364 0.025793143 -0.026883999 -0.026876764 -0.026742391 -0.026055144 -0.026460841 -0.027054673 -0.026898198 -0.026769444 0.026101846 0.026726795 0.026856584 -0.026682435 0.026838845 -0.02644265 -0.02686411 0.025828518 0.027328357 -0.02636204 -0.026330004 -0.026939856 0.02621892 -0.026548231 -0.026253516
wanted -0.024984458 0.02535834 -0.025464201 0.025662202 0.0256786 0.025924921 0.025210772 0.025520207 0.024816798 -0.02506578 0.026229601 0.025439564 0.025819728 0.024932276 -0.02465202 -0.025523307 -0.024961533 0.025289785 -0.026358211 0.025161248 0.02498714 -0.024564056 -0.024586823 0.025669862 -0.025455112 0.025309524 0.025642749 -0.025754625 -0.025781078 -0.025661852 -0.026510427 -0.026013335 -0.024473367 -0.025727673 -0.025691874 0.02485173 0.025712084 0.025707047 -0.024658745 0.025001153 -0.024779519 -0.026107207 0.025397632 0.024658429 -0.025587296 -0.025788592 -0.02537973 0.025185078 -0.025207603 -0.025967889
another -0.032659974 0.03418565 -0.032129314 0.033284374 0.032437086 0.033638056 0.03358304 0.033814874 0.03382991 -0.033525813 0.033753816 0.033132806 0.033294167 0.03335973 -0.03260425 -0.033712666 -0.033473663 0.03320751 -0.033681888 0.033783916 0.033707943 -0.033064142 -0.032664098 0.033563476 -0.033901513 0.033286437 0.033063166 -0.03363981 -0.033520836 -0.034327704 -0.033432137 -0.032259706 -0.032863405 -0.033445913 -0.034118168 0.033180565 0.033093676 0.030998839 -0.03265883 0.034037206 -0.033785146 -0.033081803 0.033160474 0.033598483 -0.033608217 -0.033993285 -0.033858523 0.033015516 -0.03372605 -0.032965932
told -0.025802242 0.0246075 -0.025446562 0.026610613 0.025711253 0.02590323 0.026094655 0.02590008 0.025877416 -0.025454365 0.025183078 0.025868302 0.025921438 0.025535528 -0.026033252 -0.025255537 -0.024787595 0.02477807 -0.025814075 0.025273954 0.025679413 -0.025541717 -0.026180321 0.025195574 -0.026082342 0.026210262 0.026160475 -0.0248597 -0.025923423 -0.025732301 -0.02536749 -0.025428923 -0.025652481 -0.024809564 -0.024813222 0.025558664 0.025108242 0.026277525 -0.02503903 0.02536648 -0.025925906 -0.025039986 0.024884872 0.025875714 -0.02557717 -0.026265722 -0.025947744 0.025773576 -0.026124652 -0.025866752
enjoyed -0.046238817 0.046431657 -0.046417817 0.046017367 0.04604821 0.04628722 0.046180792 0.046161268 0.04592411 -0.04588087 0.04548801 0.044941198 0.045754276 0.045566235 -0.04622437 -0.045423996 -0.04556559 0.046340723 -0.04546377 0.046275638 0.04589723 -0.046163373 -0.045614302 0.04633726 -0.04630732 0.046125818 0.046044495 -0.044630103 -0.045060135 -0.0465133 -0.0457803 -0.0460636 -0.04613576 -0.045760214 -0.04649598 0.046176147 0.04612921 0.043823972 -0.045886494 0.04599364 -0.045420352 -0.04492474 0.045773547 0.0462444 -0.04519614 -0.046060424 -0.04506354 0.04636475 -0.04532593 -0.045794
writing -0.030815303 0.031297445 -0.030859785 0.031509895 0.031035686 0.03079807 0.030500151 0.030899372 0.03094742 -0.030680886 0.030937748 0.030925056 0.030263329 0.03069109 -0.031038003 -0.030567208 -0.030605117 0.030796288 -0.031172575 0.03039868 0.030696765 -0.030420901 -0.031493615 0.030683188 -0.030747004 0.03088168 0.03077691 -0.03013816 -0.030323666 -0.03118515 -0.030779839 -0.030552303 -0.030465495 -0.031117026 -0.03028817 0.030592663 0.03095706 0.029463802 -0.029961128 0.031063762 -0.031084636 -0.030964207 0.0304302 0.0310102 -0.030774968 -0.031008432 -0.030873805 0.031294603 -0.030812124 -0.030386189
several -0.019581214 0.019613922 -0.019565938 0.019675955 0.020668387 0.01967712 0.019849218 0.019709129 0.01999992 -0.019801764 0.02004725 0.02011635 0.019671272 0.019534405 -0.019858005 -0.018733168 -0.019541793 0.020189729 -0.019941287 0.019755753 0.019641306 -0.019990755 -0.019883595 0.019746374 -0.020162277 0.020486206 0.019707998 -0.020324491 -0.020452842 -0.0200863 -0.020364225 -0.020622713 -0.020028573 -0.020623557 -0.019042576 0.019534824 0.019377494 0.020804944 -0.019777762 0.01987389 -0.019549012 -0.0196655 0.020508675 0.019537726 -0.020431535 -0.020772971 -0.02039377 0.019601101 -0.020471703 -0.019295104
times -0.03195617 0.031156152 -0.031146282 0.031226715 0.03176738 0.03150584 0.031390343 0.031472616 0.031534597 -0.03188777 0.031575866 0.031387188 0.03176325 0.030810738 -0.031658925 -0.031664062 -0.031821076 0.03174247 -0.03185498 0.031530373 0.03190441 -0.031529777 -0.031788148 0.031792164 -0.031503875 0.03152876 0.03159359 -0.031444028 -0.030975029 -0.031899165 -0.031486742 -0.031027352 -0.032018613 -0.030866764 -0.031424366 0.03145755 0.03174136 0.032448366 -0.031979244 0.031979382 -0.03156101 -0.031704016 0.03194794 0.03185971 -0.031702932 -0.031638015 -0.03174013 0.031824656 -0.03175569 -0.031182298
buying -0.018403495 0.0166585 -0.018278638 0.017801192 0.018654633 0.018378867 0.018958982 0.01804132 0.017958226 -0.018228235 0.018564714 0.017434139 0.01878243 0.01840325 -0.018008828 -0.01889691 -0.018510517 0.018407162 -0.01869922 0.017331222 0.017296515 -0.01708058 -0.018430796 0.018459361 -0.018683065 0.018585943 0.018120363 -0.017359937 -0.018393556 -0.018623024 -0.018752368 -0.018642358 -0.018346246 -0.018825073 -0.017566027 0.018199997 0.017890317 0.018319923 -0.017916083 0.018295918 -0.01678218 -0.018189508 0.017684426 0.018661074 -0.018094413 -0.018732505 -0.017800407 0.018008934 -0.018210724 -0.018664556
never -0.03104641 0.03157778 -0.031159021 0.031507477 0.032352693 0.031005291 0.031952623 0.031646345 0.031755723 -0.031306274 0.031227708 0.031109028 0.031695575 0.03168618 -0.031763252 -0.032134656 -0.03132169 0.03166098 -0.03209215 0.031564794 0.032173958 -0.032002863 -0.03117398 0.03210046 -0.03136379 0.031223197 0.03147773 -0.031277616 -0.03104689 -0.03105383 -0.031049436 -0.03110612 -0.031348094 -0.031156285 -0.03137008 0.031236643 0.031220641 0.031048918 -0.031229937 0.03058505 -0.031230567 -0.031791344 0.030951964 0.031830046 -0.03158056 -0.031847727 -0.031943034 0.031067561 -0.03130552 -0.031935968
disappointed -0.041189592 0.0412003 -0.041076753 0.0413052 0.040833116 0.040976897 0.041413732 0.04069621 0.041802697 -0.04098062 0.041353453 0.040961005 0.042264868 0.041118268 -0.041858617 -0.04035825 -0.041072663 0.04156933 -0.0412098 0.041536376 0.03974464 -0.040722642 -0.041407935 0.040341187 -0.04026903 0.041052267 0.04172121 -0.04050023 -0.041307427 -0.04173972 -0.041179378 -0.041418187 -0.04187074 -0.042017788 -0.040619045 0.041417174 0.04112834 0.04097248 -0.04110461 0.04112691 -0.039813794 -0.04148808 0.04164528 0.040961344 -0.04096849 -0.041636415 -0.040679414 0.04120795 -0.039763425 -0.041666195
author -0.051694237 0.0520928 -0.052590966 0.05223566 0.05231115 0.052206974 0.05221947 0.052793536 0.051598817 -0.050967325 0.051326193 0.051428355 0.051940404 0.0528589 -0.052437592 -0.05217503 -0.051244024 0.052749064 -0.052052554 0.05176085 0.0519713 -0.05233213 -0.052450344 0.05281411 -0.051781233 0.051773176 0.051574215 -0.05124146 -0.05243898 -0.052402817 -0.052809 -0.05243047 -0.051606327 -0.052626245 -0.051984254 0.051904444 0.051661987 0.049878553 -0.052143157 0.05171647 -0.052121546 -0.051967196 0.05213729 0.051747918 -0.052534875 -0.05245841 -0.051858578 0.05260429 -0.052115183 -0.052065875
next -0.040319286 0.040676475 -0.041505057 0.040642627 0.040568743 0.040361345 0.04096688 0.04102398 0.040053464 -0.040004697 0.040589944 0.04104138 0.040379003 0.04108759 -0.040677246 -0.040663287 -0.04085447 0.04122672 -0.03998982 0.03949767 0.040220648 -0.041665494 -0.04138326 0.040264867 -0.04057563 0.040711425 0.04092049 -0.040539626 -0.04047286 -0.04048808 -0.04075184 -0.042028602 -0.041133884 -0.040986646 -0.039854474 0.04046182 0.04104517 0.03851905 -0.040765706 0.04089005 -0.04169634 -0.040811256 0.040460978 0.040579457 -0.04099993 -0.041595295 -0.04059663 0.04120235 -0.04109559 -0.04033015
trilogy -0.020479413 0.02170372 -0.02070928 0.02093395 0.020096002 0.020621516 0.020817874 0.02089332 0.02044119 -0.02151118 0.0204624 0.021717751 0.021456212 0.020228244 -0.020233665 -0.021418907 -0.02068392 0.02029788 -0.020783152 0.020391038 0.021119466 -0.021222593 -0.021174477 0.021092506 -0.020372154 0.020444943 0.022294784 -0.02080411 -0.02074385 -0.02103319 -0.020350445 -0.020666046 -0.020347724 -0.020212345 -0.021400927 0.021280972 0.02060936 0.020597007 -0.019366814 0.020271795 -0.020547558 -0.02067203 0.020550026 0.020963755 -0.020592233 -0.020996481 -0.020680655 0.020494968 -0.02110015 -0.021224795
beautiful -0.017224636 0.016914029 -0.016860692 0.016895318 0.017055016 0.017528335 0.017086526 0.017349957 0.017399203 -0.01733467 0.016788982 0.017569534 0.01695936 0.016792106 -0.017166724 -0.01721281 -0.017738791 0.016968068 -0.017338384 0.017115785 0.0169637 -0.017335776 -0.01685276 0.017490314 -0.016786648 0.016946206 0.017161764 -0.017573297 -0.017532308 -0.016963916 -0.017102564 -0.016880676 -0.017123614 -0.017155143 -0.01755289 0.017232215 0.017394682 0.017479917 -0.01768653 0.016406095 -0.017302895 -0.017370889 0.01749437 0.016758787 -0.016764175 -0.01734058 -0.017001577 0.017446602 -0.017072137 -0.01713682
beginning -0.026941605 0.026568985 -0.026867652 0.026667766 0.026035361 0.026916021 0.026744917 0.026452126 0.026699634 -0.026167586 0.02634176 0.026355848 0.026709544 0.026998512 -0.026676923 -0.026724063 -0.026083466 0.026671236 -0.02600992 0.026944153 0.026093652 -0.02588717 -0.026737899 0.026720574 -0.026903339 0.026670516 0.026751943 -0.027200464 -0.026722297 -0.026223915 -0.026277572 -0.026326573 -0.027349912 -0.027271356 -0.026908003 0.026342522 0.026546001 0.026644096 -0.026314728 0.026619948 -0.026344378 -0.026975524 0.025516538 0.027209373 -0.027100857 -0.027009526 -0.025869338 0.026627561 -0.026393065 -0.026727688
part -0.033343684 0.033778504 -0.032937594 0.03406159 0.032551404 0.033429958 0.034255855 0.034265403 0.03445639 -0.034153804 0.033908386 0.033295453 0.033586092 0.032589253 -0.034197427 -0.032977093 -0.03370753 0.033995356 -0.033188332 0.03413757 0.032631677 -0.03409131 -0.03419532 0.033424154 -0.033778563 0.033580508 0.034205634 -0.03340938 -0.033858947 -0.034020104 -0.03339209 -0.0330825 -0.034031153 -0.033888217 -0.034519423 0.033587918 0.03327751 0.031898014 -0.03484509 0.033767734 -0.032516405 -0.03340979 0.034066953 0.03244619 -0.033900682 -0.03384941 -0.033311315 0.033285085 -0.03383477 -0.034023244
series -0.053201646 0.05321365 -0.054607537 0.053364765 0.053133268 0.053598896 0.05306066 0.053236295 0.05314331 -0.0527309 0.052782398 0.053356282 0.05285854 0.053889893 -0.05357807 -0.05294438 -0.053633105 0.054138537 -0.052135743 0.053768102 0.0548975 -0.053339753 -0.052997164 0.053535692 -0.05251087 0.05234814 0.053191554 -0.05303067 -0.05227368 -0.054014087 -0.053546425 -0.05391626 -0.05307468 -0.052592874 -0.05429258 0.05290911 0.053554974 0.051523574 -0.053642675 0.05271207 -0.053541675 -0.052622367 0.054306187 0.054018136 -0.053529907 -0.054183852 -0.052739307 0.053919263 -0.05346225 -0.053723153
revealed -0.010747303 0.011057349 -0.01141022 0.010896432 0.011056973 0.011087202 0.01149384 0.011524749 0.010837234 -0.011047539 0.011718091 0.01161685 0.011172377 0.01162378 -0.011334738 -0.011301217 -0.0113845635 0.01094802 -0.01127734 0.011337992 0.010367689 -0.011007643 -0.011356356 0.011043282 -0.011224043 0.011046687 0.011081872 -0.011390588 -0.010952536 -0.011773779 -0.011541122 -0.011668542 -0.010742266 -0.0113234045 -0.011444849 0.011406036 0.011345609 0.009872724 -0.011330291 0.011457815 -0.011264951 -0.011624954 0.011635964 0.011535482 -0.0111954175 -0.011184395 -0.011151255 0.010884757 -0.011149149 -0.010817093
things -0.03853911 0.037986584 -0.03813641 0.038614005 0.03853945 0.038631223 0.03879745 0.03846325 0.038098592 -0.0380996 0.03893151 0.039094962 0.038808357 0.038604453 -0.038468957 -0.03815009 -0.038630966 0.038523886 -0.03889497 0.038154345 0.03854906 -0.03832442 -0.03872977 0.038864035 -0.038195495 0.038238365 0.038744446 -0.039039664 -0.039004378 -0.03826277 -0.038345605 -0.03872224 -0.038190816 -0.038791712 -0.03808542 0.03806183 0.037874468 0.03775218 -0.037675083 0.038766522 -0.038085822 -0.038340054 0.038780667 0.038638573 -0.03910844 -0.038736653 -0.038224973 0.0384992 -0.038955502 -0.038094975
cheap -0.016374573 0.01617044 -0.016067287 0.015926423 0.015321537 0.015983488 0.016203618 0.016473494 0.016629664 -0.015619557 0.01564647 0.016297849 0.016103132 0.01664673 -0.01576736 -0.016329177 -0.015909484 0.01651158 -0.015822109 0.01565181 0.015722748 -0.015342774 -0.016082175 0.016562928 -0.015914008 0.01580825 0.015841916 -0.015738886 -0.016855888 -0.016208658 -0.01628148 -0.015667055 -0.01613999 -0.01627539 -0.0155682415 0.016582718 0.016341396 0.0153471725 -0.016109033 0.015920714 -0.015124425 -0.01669916 0.016074575 0.016431402 -0.01672748 -0.016698629 -0.0159626 0.016139468 -0.016263654 -0.016435005
first -0.052156612 0.052824907 -0.052728675 0.052015062 0.05283242 0.053057827 0.053022373 0.052416675 0.05260488 -0.05283584 0.05261248 0.052281916 0.052371655 0.052508146 -0.052570067 -0.05336682 -0.052140545 0.052311428 -0.052680697 0.052054524 0.052518077 -0.05273171 -0.05214823 0.052068733 -0.052758425 0.05236631 0.05301449 -0.052008748 -0.052173223 -0.052947156 -0.052134175 -0.05326675 -0.051854134 -0.05261647 -0.0532224 0.05283848 0.052630857 0.052674387 -0.052046314 0.0537013 -0.052935652 -0.052470807 0.05305221 0.05232021 -0.052984804 -0.052500915 -0.052041207 0.052297037 -0.05257396 -0.053063583
wonder -0.014685916 0.014159778 -0.014225002 0.014330916 0.014572335 0.014011616 0.0147125255 0.014781488 0.0143958405 -0.014833711 0.014711644 0.014508619 0.014112042 0.014985943 -0.01455659 -0.014721756 -0.014239582 0.014121039 -0.014343728 0.014639682 0.014236473 -0.014522382 -0.014851003 0.014734254 -0.014131752 0.014082421 0.014616881 -0.014653676 -0.014328231 -0.014552457 -0.0144857615 -0.014523863 -0.014370411 -0.014196187 -0.0144636305 0.014626825 0.014515694 0.014226905 -0.014553809 0.01473859 -0.014108871 -0.014739959 0.014161249 0.014624954 -0.014390006 -0.014309187 -0.014491976 0.014153797 -0.014891514 -0.014589087
like -0.05670146 0.05700798 -0.056397658 0.057172246 0.05705718 0.057044704 0.05651958 0.056315623 0.056338567 -0.056441363 0.056994222 0.05719555 0.05673732 0.056121364 -0.057072647 -0.056549143 -0.05704479 0.056395575 -0.056971233 0.056802243 0.05687718 -0.057615995 -0.056570176 0.057355057 -0.056794155 0.05581901 0.056846883 -0.056805614 -0.056455374 -0.0566352 -0.056295864 -0.05615055 -0.056294724 -0.056899168 -0.056936692 0.05625992 0.05692932 0.05580765 -0.056814596 0.056540042 -0.056580342 -0.05665051 0.056457613 0.056240465 -0.05625679 -0.056607895 -0.05731583 0.05703596 -0.057003606 -0.056800123
anyway -0.017010372 0.017390111 -0.016966434 0.016790511 0.017576763 0.017700132 0.017242393 0.017196685 0.01752591 -0.017410973 0.016108707 0.017573474 0.017556263 0.0176668 -0.017397974 -0.01679228 -0.017726192 0.017002566 -0.017600916 0.017225457 0.017082747 -0.017379073 -0.016963128 0.017580811 -0.017137745 0.017251212 0.01742949 -0.017683359 -0.016821967 -0.017557831 -0.01724287 -0.017916627 -0.01701585 -0.016569704 -0.017552353 0.017579895 0.016210813 0.018562237 -0.017247142 0.017895306 -0.018151883 -0.017076654 0.017658373 0.017443262 -0.017040627 -0.017491193 -0.017506355 0.017239993 -0.01696619 -0.01728036
